{"learner":{"attributes":{},"feature_names":["Unnamed: 0","day_of_week","nb_customers_on_day","open","promotion","state_holiday","school_holiday"],"feature_types":["int","int","int","int","int","int","int"],"gradient_booster":{"model":{"gbtree_model_param":{"num_parallel_tree":"1","num_trees":"100"},"iteration_indptr":[0,1,2,3,4,5,6,7,8,9,10,11,12,13,14,15,16,17,18,19,20,21,22,23,24,25,26,27,28,29,30,31,32,33,34,35,36,37,38,39,40,41,42,43,44,45,46,47,48,49,50,51,52,53,54,55,56,57,58,59,60,61,62,63,64,65,66,67,68,69,70,71,72,73,74,75,76,77,78,79,80,81,82,83,84,85,86,87,88,89,90,91,92,93,94,95,96,97,98,99,100],"tree_info":[0,0,0,0,0,0,0,0,0,0,0,0,0,0,0,0,0,0,0,0,0,0,0,0,0,0,0,0,0,0,0,0,0,0,0,0,0,0,0,0,0,0,0,0,0,0,0,0,0,0,0,0,0,0,0,0,0,0,0,0,0,0,0,0,0,0,0,0,0,0,0,0,0,0,0,0,0,0,0,0,0,0,0,0,0,0,0,0,0,0,0,0,0,0,0,0,0,0,0,0],"trees":[{"base_weights":[-2.504977E0,-5.77894E2,1.1798356E3,1.5589062E2,2.448556E3,1.3686902E2,2.6360474E3,3.9926285E2,2.0509907E3,4.514625E2,9.007053E1,2.5187485E3,7.3919183E2,2.51544E3,1.890651E3,1.3200859E2,1.5196665E3,-8.091133E1,2.4644437E2,2.5218684E2,-9.245115E1,2.5234924E2,2.4855838E2,1.8887958E3,1.0567504E4,1.29199705E1,1.7538651E3,1.5241661E2,9.3295525E1,-8.412658E0,2.3919376E2,5.4964108E1,1.0668435E1,1.8440854E2,2.0717032E2,2.3380232E3,6.703854E2],"categories":[],"categories_nodes":[],"categories_segments":[],"categories_sizes":[],"default_left":[0,0,0,0,0,0,0,0,0,0,0,0,0,0,0,0,0,0,0,0,0,0,0,0,0,0,0,0,0,0,0,0,0,0,0,0,0],"id":0,"left_children":[1,-1,3,5,7,9,11,-1,13,15,17,19,-1,21,23,25,27,29,31,-1,-1,-1,-1,33,35,-1,-1,-1,-1,-1,-1,-1,-1,-1,-1,-1,-1],"loss_changes":[2.801323E12,0E0,4.4231318E11,8.888418E9,9.3338665E10,2.7528013E9,7.813509E8,0E0,9.00078E9,8.2622904E9,4.352016E9,1.7381376E7,0E0,1.196032E6,1.4271775E9,9.091032E8,1.3292544E7,6.184095E8,3.602517E9,0E0,0E0,0E0,0E0,7.312179E8,7.8383654E8,0E0,0E0,0E0,0E0,0E0,0E0,0E0,0E0,0E0,0E0,0E0,0E0],"parents":[2147483647,0,0,2,2,3,3,4,4,5,5,6,6,8,8,9,9,10,10,11,11,13,13,14,14,15,15,16,16,17,17,18,18,23,23,24,24],"right_children":[2,-1,4,6,8,10,12,-1,14,16,18,20,-1,22,24,26,28,30,32,-1,-1,-1,-1,34,36,-1,-1,-1,-1,-1,-1,-1,-1,-1,-1,-1,-1],"split_conditions":[1E0,-5.77894E2,1E0,7E0,2E0,2E0,1E0,3.9926285E2,3E0,1E0,5E0,1E0,7.3919183E2,1E0,2E0,2E0,1E0,1E0,6E0,2.5218684E2,-9.245115E1,2.5234924E2,2.4855838E2,1E0,1E0,1.29199705E1,1.7538651E3,1.5241661E2,9.3295525E1,-8.412658E0,2.3919376E2,5.4964108E1,1.0668435E1,1.8440854E2,2.0717032E2,2.3380232E3,6.703854E2],"split_indices":[3,0,4,1,1,1,6,0,1,6,1,5,0,6,5,5,5,5,1,0,0,0,0,6,6,0,0,0,0,0,0,0,0,0,0,0,0],"split_type":[0,0,0,0,0,0,0,0,0,0,0,0,0,0,0,0,0,0,0,0,0,0,0,0,0,0,0,0,0,0,0,0,0,0,0,0,0],"sum_hessian":[4.10165E5,6.9689E4,3.40476E5,1.88414E5,1.52062E5,1.86981E5,1.433E3,3.1134E4,1.20928E5,2.4212E4,1.62769E5,1.4E3,3.3E1,3.103E4,8.9898E4,1.8639E4,5.573E3,7.7753E4,8.5016E4,1.399E3,1E0,2.4373E4,6.657E3,8.988E4,1.8E1,1.8637E4,2E0,5.529E3,4.4E1,7.7653E4,1E2,2.6823E4,5.8193E4,7.2234E4,1.7646E4,3E0,1.5E1],"tree_param":{"num_deleted":"0","num_feature":"7","num_nodes":"37","size_leaf_vector":"1"}},{"base_weights":[-2.7461934E0,-5.201054E2,1.0606442E3,2.2046436E3,8.379976E2,2.0757695E3,2.6442402E3,1.0238447E3,1.3662816E2,2.0741594E3,1.8807584E3,3.0897068E3,2.6356802E3,9.733491E2,1.1762091E3,8.555059E1,2.169471E3,2.1411335E3,2.0034716E3,3.1002722E2,3.298408E1,2.6229563E3,2.9321006E3,1.1710835E3,8.704829E2,1.1719547E3,7.9490645E3,8.533468E1,4.2448727E2,2.0718474E3,5.678355E3,2.1349751E2,2.5438684E2,1.9892772E2,2.1079996E2,2.6308957E2,2.150457E2,2.962024E2,-3.0025458E2,1.1714071E2,-1.670208E2,8.679488E1,2.1748714E2,1.2338418E2,9.601702E1,2.1626716E3,5.9909503E2,1.0492828E1,5.6763783E0,1.989116E2,3.717778E2,3.2575485E2,7.0556274E2],"categories":[],"categories_nodes":[],"categories_segments":[],"categories_sizes":[],"default_left":[0,0,0,0,0,0,0,0,0,0,0,0,0,0,0,0,0,0,0,0,0,0,0,0,0,0,0,0,0,0,0,0,0,0,0,0,0,0,0,0,0,0,0,0,0,0,0,0,0,0,0,0,0],"id":1,"left_children":[1,-1,3,5,7,9,11,13,15,17,-1,19,21,23,25,27,29,31,33,-1,-1,35,37,39,41,43,45,47,-1,49,51,-1,-1,-1,-1,-1,-1,-1,-1,-1,-1,-1,-1,-1,-1,-1,-1,-1,-1,-1,-1,-1,-1],"loss_changes":[2.2651058E12,0E0,8.6643474E10,3.1341445E9,3.7117362E10,1.1156357E9,3.9747584E7,1.730773E9,6.193434E9,1.9860685E8,0E0,5.713152E6,3.882189E7,3.4381169E9,1.6051405E9,5.1895264E7,4.8904243E8,4.911104E7,2.6771456E7,0E0,0E0,3.8723584E7,9.75081E7,5.5148544E7,3.657646E8,7.3272525E8,8.078195E8,3.256752E7,0E0,1.8651136E8,1.0704627E8,0E0,0E0,0E0,0E0,0E0,0E0,0E0,0E0,0E0,0E0,0E0,0E0,0E0,0E0,0E0,0E0,0E0,0E0,0E0,0E0,0E0,0E0],"parents":[2147483647,0,0,2,2,3,3,4,4,5,5,6,6,7,7,8,8,9,9,11,11,12,12,13,13,14,14,15,15,16,16,17,17,18,18,21,21,22,22,23,23,24,24,25,25,26,26,27,27,29,29,30,30],"right_children":[2,-1,4,6,8,10,12,14,16,18,-1,20,22,24,26,28,30,32,34,-1,-1,36,38,40,42,44,46,48,-1,50,52,-1,-1,-1,-1,-1,-1,-1,-1,-1,-1,-1,-1,-1,-1,-1,-1,-1,-1,-1,-1,-1,-1],"split_conditions":[1E0,-5.201054E2,2E0,1E0,6E0,2E0,1.1178E4,5E0,7E0,3.63932E5,1.8807584E3,1E0,6.84232E5,3E0,2E0,1E0,1E0,3.58644E5,6.70485E5,3.1002722E2,3.298408E1,6.73236E5,1E0,1E0,1E0,1E0,1E0,4.22116E5,4.2448727E2,6.81552E5,2.69434E5,2.1349751E2,2.5438684E2,1.9892772E2,2.1079996E2,2.6308957E2,2.150457E2,2.962024E2,-3.0025458E2,1.1714071E2,-1.670208E2,8.679488E1,2.1748714E2,1.2338418E2,9.601702E1,2.1626716E3,5.9909503E2,1.0492828E1,5.6763783E0,1.989116E2,3.717778E2,3.2575485E2,7.0556274E2],"split_indices":[3,0,1,6,1,5,0,1,1,0,0,5,0,1,5,5,6,0,0,0,0,0,5,5,5,6,6,0,0,0,0,0,0,0,0,0,0,0,0,0,0,0,0,0,0,0,0,0,0,0,0,0,0],"split_type":[0,0,0,0,0,0,0,0,0,0,0,0,0,0,0,0,0,0,0,0,0,0,0,0,0,0,0,0,0,0,0,0,0,0,0,0,0,0,0,0,0,0,0,0,0,0,0,0,0,0,0,0,0],"sum_hessian":[4.09762E5,6.9587E4,3.40175E5,5.5418E4,2.84757E5,4.2859E4,1.2559E4,2.25108E5,5.9649E4,4.2856E4,3E0,2.3E2,1.2329E4,1.6908E5,5.6028E4,5.8188E4,1.461E3,2.1991E4,2.0865E4,2.29E2,1E0,1.1831E4,4.98E2,5.7856E4,1.11224E5,5.5994E4,3.4E1,5.8186E4,2E0,1.423E3,3.8E1,2.1666E4,3.25E2,1.8388E4,2.477E3,1.1631E4,2E2,4.96E2,2E0,5.785E4,6E0,1.1101E5,2.14E2,4.3328E4,1.2666E4,3E0,3.1E1,3.4514E4,2.3672E4,1.357E3,6.6E1,1.5E1,2.3E1],"tree_param":{"num_deleted":"0","num_feature":"7","num_nodes":"53","size_leaf_vector":"1"}},{"base_weights":[-7.8427756E-1,-2.2736174E3,2.516454E3,-4.52759E3,-9.731621E2,1.6600864E3,6.473969E3,-4.674981E3,-3.2017869E3,-1.7523231E3,-4.5736346E2,9.2935596E2,2.714191E3,5.3736045E3,1.0157545E4,-4.680956E2,-4.3527097E2,-3.5968813E3,-3.0027266E3,-2.2766926E3,-1.4573903E3,-7.482608E2,-6.6928065E-1,4.325058E2,1.4226833E3,1.9545354E3,3.2517642E3,4.849708E3,6.601517E3,9.435281E3,1.3709626E4,-3.7504065E2,-3.4459384E2,-3.139585E3,-2.8631982E3,-2.512186E3,-2.0633838E3,-1.6090927E3,-1.0428247E3,-1.00255914E3,-4.684045E2,-3.105792E2,2.8608325E2,1.7002475E2,8.213787E2,9.612677E2,1.8626708E3,1.5728976E3,2.5268645E3,2.8116504E3,3.9582927E3,3.8819019E3,5.4296943E3,5.4297764E3,7.4653887E3,8.251222E3,1.0540021E4,1.3600671E4,1.7878645E4,-3.1702908E2,-2.851225E2,-2.9150034E2,-2.4721239E2,-2.5859592E2,-2.1343213E2,-2.1757886E2,-1.6757513E2,-1.8227979E2,-1.4641771E2,-1.26484825E2,-8.511267E1,-1.1274731E2,-8.3692375E1,-6.121684E1,-3.4283497E1,-5.0858685E1,-1.7357008E1,1.2028626E1,3.8839108E1,-9.5177525E-1,3.5000317E1,7.149758E1,1.0385958E2,7.610516E1,1.1654577E2,1.5778162E2,2.09335E2,1.3366994E2,1.7335178E2,2.3186882E2,2.8862827E2,2.6162643E2,3.2111075E2,3.678552E2,4.2242136E2,3.525145E2,4.131547E2,5.0407184E2,6.179238E2,4.9530792E2,5.8965735E2,7.13842E2,8.151129E2,7.7635266E2,9.804841E2,9.500952E2,1.1317382E3,1.2997676E3,1.4155609E3,1.8218157E3,3.846648E2],"categories":[],"categories_nodes":[],"categories_segments":[],"categories_sizes":[],"default_left":[0,0,0,0,0,0,0,0,0,0,0,0,0,0,0,0,0,0,0,0,0,0,0,0,0,0,0,0,0,0,0,0,0,0,0,0,0,0,0,0,0,0,0,0,0,0,0,0,0,0,0,0,0,0,0,0,0,0,0,0,0,0,0,0,0,0,0,0,0,0,0,0,0,0,0,0,0,0,0,0,0,0,0,0,0,0,0,0,0,0,0,0,0,0,0,0,0,0,0,0,0,0,0,0,0,0,0,0,0,0,0],"id":2,"left_children":[1,3,5,7,9,11,13,15,17,19,21,23,25,27,29,-1,-1,31,33,35,37,39,41,43,45,47,49,51,53,55,57,-1,-1,59,61,63,65,67,69,71,73,75,77,79,81,83,85,87,89,91,93,95,97,99,101,103,105,107,109,-1,-1,-1,-1,-1,-1,-1,-1,-1,-1,-1,-1,-1,-1,-1,-1,-1,-1,-1,-1,-1,-1,-1,-1,-1,-1,-1,-1,-1,-1,-1,-1,-1,-1,-1,-1,-1,-1,-1,-1,-1,-1,-1,-1,-1,-1,-1,-1,-1,-1,-1,-1],"loss_changes":[2.3445334E12,6.312304E11,6.589705E11,1.5381561E10,5.4882124E10,1.2312684E11,1.4014821E11,1.1612979E8,6.094111E8,8.408924E9,1.0916241E10,2.313995E10,2.6719453E10,1.7102864E10,2.027959E10,0E0,0E0,4.8185344E7,9.126298E7,9.783296E8,2.1879276E9,3.5718287E9,2.8415368E9,4.801112E9,9.61554E9,5.920309E9,1.1905532E10,1.0460922E10,8.0199025E9,8.564703E9,3.6641178E8,0E0,0E0,1.4336E7,4.569293E7,2.537554E8,4.442235E8,7.866409E8,3.960228E8,5.4316646E8,4.312238E8,4.1680077E8,2.816636E8,9.075034E8,4.3735552E8,9.44513E8,1.5900344E9,6.15125E8,8.050524E8,1.8348769E9,1.0785096E9,6.089687E8,3.3724498E9,7.23583E8,9.6894976E8,2.3462216E9,2.6532905E9,2.5504973E8,7.760589E7,0E0,0E0,0E0,0E0,0E0,0E0,0E0,0E0,0E0,0E0,0E0,0E0,0E0,0E0,0E0,0E0,0E0,0E0,0E0,0E0,0E0,0E0,0E0,0E0,0E0,0E0,0E0,0E0,0E0,0E0,0E0,0E0,0E0,0E0,0E0,0E0,0E0,0E0,0E0,0E0,0E0,0E0,0E0,0E0,0E0,0E0,0E0,0E0,0E0,0E0,0E0,0E0],"parents":[2147483647,0,0,1,1,2,2,3,3,4,4,5,5,6,6,7,7,8,8,9,9,10,10,11,11,12,12,13,13,14,14,17,17,18,18,19,19,20,20,21,21,22,22,23,23,24,24,25,25,26,26,27,27,28,28,29,29,30,30,33,33,34,34,35,35,36,36,37,37,38,38,39,39,40,40,41,41,42,42,43,43,44,44,45,45,46,46,47,47,48,48,49,49,50,50,51,51,52,52,53,53,54,54,55,55,56,56,57,57,58,58],"right_children":[2,4,6,8,10,12,14,16,18,20,22,24,26,28,30,-1,-1,32,34,36,38,40,42,44,46,48,50,52,54,56,58,-1,-1,60,62,64,66,68,70,72,74,76,78,80,82,84,86,88,90,92,94,96,98,100,102,104,106,108,110,-1,-1,-1,-1,-1,-1,-1,-1,-1,-1,-1,-1,-1,-1,-1,-1,-1,-1,-1,-1,-1,-1,-1,-1,-1,-1,-1,-1,-1,-1,-1,-1,-1,-1,-1,-1,-1,-1,-1,-1,-1,-1,-1,-1,-1,-1,-1,-1,-1,-1,-1,-1],"split_conditions":[6.3E2,3.07E2,1.172E3,2.07E2,4.78E2,8.45E2,1.821E3,1E0,2.59E2,3.94E2,1E0,1E0,1E0,1.468E3,3.137E3,-4.680956E2,-4.3527097E2,2.39E2,2.87E2,3.57E2,1E0,5.55E2,5.58E2,7.41E2,7.27E2,9.86E2,1.006E3,1E0,1E0,1E0,1E0,-3.7504065E2,-3.4459384E2,1E0,1E0,1E0,1E0,4.31E2,4.4E2,5.22E2,5.88E2,5.14E2,5.86E2,6.81E2,8.07E2,6.78E2,7.76E2,8.93E2,1.086E3,9.45E2,1.076E3,1.265E3,1.326E3,1.607E3,1.664E3,2.608E3,2.073E3,1E0,5.97769E5,-3.1702908E2,-2.851225E2,-2.9150034E2,-2.4721239E2,-2.5859592E2,-2.1343213E2,-2.1757886E2,-1.6757513E2,-1.8227979E2,-1.4641771E2,-1.26484825E2,-8.511267E1,-1.1274731E2,-8.3692375E1,-6.121684E1,-3.4283497E1,-5.0858685E1,-1.7357008E1,1.2028626E1,3.8839108E1,-9.5177525E-1,3.5000317E1,7.149758E1,1.0385958E2,7.610516E1,1.1654577E2,1.5778162E2,2.09335E2,1.3366994E2,1.7335178E2,2.3186882E2,2.8862827E2,2.6162643E2,3.2111075E2,3.678552E2,4.2242136E2,3.525145E2,4.131547E2,5.0407184E2,6.179238E2,4.9530792E2,5.8965735E2,7.13842E2,8.151129E2,7.7635266E2,9.804841E2,9.500952E2,1.1317382E3,1.2997676E3,1.4155609E3,1.8218157E3,3.846648E2],"split_indices":[2,2,2,2,2,2,2,3,2,2,4,4,4,2,2,0,0,2,2,2,4,2,2,2,2,2,2,4,4,4,5,0,0,4,4,4,4,2,2,2,2,2,2,2,2,2,2,2,2,2,2,2,2,2,2,2,2,4,0,0,0,0,0,0,0,0,0,0,0,0,0,0,0,0,0,0,0,0,0,0,0,0,0,0,0,0,0,0,0,0,0,0,0,0,0,0,0,0,0,0,0,0,0,0,0,0,0,0,0,0,0],"split_type":[0,0,0,0,0,0,0,0,0,0,0,0,0,0,0,0,0,0,0,0,0,0,0,0,0,0,0,0,0,0,0,0,0,0,0,0,0,0,0,0,0,0,0,0,0,0,0,0,0,0,0,0,0,0,0,0,0,0,0,0,0,0,0,0,0,0,0,0,0,0,0,0,0,0,0,0,0,0,0,0,0,0,0,0,0,0,0,0,0,0,0,0,0,0,0,0,0,0,0,0,0,0,0,0,0,0,0,0,0,0,0],"sum_hessian":[4.09791E5,2.1535E5,1.94441E5,7.8789E4,1.36561E5,1.59852E5,3.4589E4,7.0904E4,7.885E3,5.4393E4,8.2168E4,9.4408E4,6.5444E4,2.6635E4,7.954E3,6.96E4,1.304E3,2.636E3,5.249E3,1.9578E4,3.4815E4,5.0195E4,3.1973E4,4.7037E4,4.7371E4,2.7122E4,3.8322E4,1.8673E4,7.962E3,6.613E3,1.341E3,1.295E3,1.341E3,2.639E3,2.61E3,9.3E3,1.0278E4,2.5486E4,9.329E3,2.6297E4,2.3898E4,1.5366E4,1.6607E4,2.8083E4,1.8954E4,2.3124E4,2.4247E4,1.6274E4,1.0848E4,2.3616E4,1.4706E4,7E3,1.1673E4,3.382E3,4.58E3,3.196E3,3.417E3,1.311E3,3E1,2.376E3,2.63E2,2.299E3,3.11E2,7.776E3,1.524E3,7.964E3,2.314E3,1.0294E4,1.5192E4,4.32E3,5.009E3,1.4988E4,1.1309E4,1.114E4,1.2758E4,6.283E3,9.083E3,6.338E3,1.0269E4,1.4059E4,1.4024E4,1.2725E4,6.229E3,1.1678E4,1.1446E4,1.0853E4,1.3394E4,6.591E3,9.683E3,6.874E3,3.974E3,1.5864E4,7.752E3,7.174E3,7.532E3,2.888E3,4.112E3,7.69E3,3.983E3,1.679E3,1.703E3,3.109E3,1.471E3,2.437E3,7.59E2,1.468E3,1.949E3,6.4E2,6.71E2,2.9E1,1E0],"tree_param":{"num_deleted":"0","num_feature":"7","num_nodes":"111","size_leaf_vector":"1"}},{"base_weights":[1.4750009E0,-2.1221238E3,2.1838064E3,-4.0742073E3,-9.2955975E2,1.4138333E3,5.7460854E3,-4.2073506E3,-2.8786213E3,-1.6060676E3,-4.7602002E2,7.7206757E2,2.40892E3,4.7751494E3,9.149488E3,-4.212867E2,-3.909271E2,-3.2313486E3,-2.702113E3,-2.093876E3,-1.3639937E3,-7.7134515E2,-2.368474E2,3.6876605E2,1.1351177E3,1.9925339E3,2.964418E3,4.190149E3,5.7151055E3,8.502702E3,1.22803E4,-3.3767105E2,-3.090072E2,-2.825874E3,-2.5758545E3,-2.326123E3,-1.9489987E3,-1.5667252E3,-1.2165055E3,-8.895805E2,-6.5690015E2,-3.6843082E2,-1.12446594E2,1.9759782E2,5.391051E2,8.989742E2,1.3496935E3,1.8074336E3,2.2368105E3,2.7178618E3,3.291213E3,3.8859153E3,4.5470176E3,5.3367456E3,6.3503687E3,7.654169E3,9.064397E3,1.2205225E3,1.4853659E4,-2.893541E2,-2.7496677E2,-2.6308267E2,-2.5177495E2,-2.4505501E2,-2.2433696E2,-2.0491772E2,-1.8567528E2,-1.6571562E2,-1.4916766E2,-1.3097359E2,-1.1375928E2,-9.586312E1,-8.301986E1,-7.100948E1,-5.931321E1,-4.2188343E1,-2.991551E1,-1.7295881E1,-3.6275537E0,1.2517318E1,2.8604227E1,4.734707E1,6.370843E1,8.469627E1,1.0339667E2,1.2262064E2,1.503433E2,1.684432E2,1.8989633E2,2.1455733E2,2.3614769E2,2.573718E2,2.8626266E2,3.1268002E2,3.3741833E2,3.766826E2,4.0324603E2,4.4323633E2,4.7728418E2,5.1404663E2,5.623397E2,6.1481506E2,6.744069E2,7.240897E2,8.060088E2,8.7642645E2,9.6664484E2,1.5879297E3,9.535425E2],"categories":[],"categories_nodes":[],"categories_segments":[],"categories_sizes":[],"default_left":[0,0,0,0,0,0,0,0,0,0,0,0,0,0,0,0,0,0,0,0,0,0,0,0,0,0,0,0,0,0,0,0,0,0,0,0,0,0,0,0,0,0,0,0,0,0,0,0,0,0,0,0,0,0,0,0,0,0,0,0,0,0,0,0,0,0,0,0,0,0,0,0,0,0,0,0,0,0,0,0,0,0,0,0,0,0,0,0,0,0,0,0,0,0,0,0,0,0,0,0,0,0,0,0,0,0,0,0,0],"id":3,"left_children":[1,3,5,7,9,11,13,15,17,19,21,23,25,27,29,-1,-1,31,33,35,37,39,41,43,45,47,49,51,53,55,57,-1,-1,59,61,63,65,67,69,71,73,75,77,79,81,83,85,87,89,91,93,95,97,99,101,103,105,-1,107,-1,-1,-1,-1,-1,-1,-1,-1,-1,-1,-1,-1,-1,-1,-1,-1,-1,-1,-1,-1,-1,-1,-1,-1,-1,-1,-1,-1,-1,-1,-1,-1,-1,-1,-1,-1,-1,-1,-1,-1,-1,-1,-1,-1,-1,-1,-1,-1,-1,-1],"loss_changes":[1.898281E12,4.832789E11,5.5407673E11,1.2520129E10,3.953954E10,1.060768E11,1.1859722E11,1.0013901E8,4.826153E8,6.1046456E9,5.449206E9,1.4785376E10,1.5057879E10,1.533739E10,1.6030564E10,0E0,0E0,4.351795E7,7.500595E7,5.72588E8,1.0317537E9,4.6654874E8,6.9775616E8,1.394776E9,2.6915758E9,1.6791962E9,2.2390374E9,1.8522767E9,2.5413222E9,3.079635E9,8.183808E7,0E0,0E0,5.70368E6,1.738752E6,6.2296064E7,9.386803E7,9.630925E7,1.4576845E8,6.881587E7,5.909709E7,7.658445E7,1.0100147E8,1.5282637E8,1.5389542E8,1.7677926E8,5.2671283E8,2.3529882E8,1.7742234E8,3.2458342E8,1.5305114E8,1.4717747E8,1.8389402E8,3.4924134E8,2.7651277E8,3.8417203E8,6.32619E8,0E0,3.403981E7,0E0,0E0,0E0,0E0,0E0,0E0,0E0,0E0,0E0,0E0,0E0,0E0,0E0,0E0,0E0,0E0,0E0,0E0,0E0,0E0,0E0,0E0,0E0,0E0,0E0,0E0,0E0,0E0,0E0,0E0,0E0,0E0,0E0,0E0,0E0,0E0,0E0,0E0,0E0,0E0,0E0,0E0,0E0,0E0,0E0,0E0,0E0,0E0,0E0,0E0],"parents":[2147483647,0,0,1,1,2,2,3,3,4,4,5,5,6,6,7,7,8,8,9,9,10,10,11,11,12,12,13,13,14,14,17,17,18,18,19,19,20,20,21,21,22,22,23,23,24,24,25,25,26,26,27,27,28,28,29,29,30,30,33,33,34,34,35,35,36,36,37,37,38,38,39,39,40,40,41,41,42,42,43,43,44,44,45,45,46,46,47,47,48,48,49,49,50,50,51,51,52,52,53,53,54,54,55,55,56,56,58,58],"right_children":[2,4,6,8,10,12,14,16,18,20,22,24,26,28,30,-1,-1,32,34,36,38,40,42,44,46,48,50,52,54,56,58,-1,-1,60,62,64,66,68,70,72,74,76,78,80,82,84,86,88,90,92,94,96,98,100,102,104,106,-1,108,-1,-1,-1,-1,-1,-1,-1,-1,-1,-1,-1,-1,-1,-1,-1,-1,-1,-1,-1,-1,-1,-1,-1,-1,-1,-1,-1,-1,-1,-1,-1,-1,-1,-1,-1,-1,-1,-1,-1,-1,-1,-1,-1,-1,-1,-1,-1,-1,-1,-1],"split_conditions":[6.15E2,3.07E2,1.161E3,2.07E2,4.73E2,8.42E2,1.821E3,1E0,2.59E2,3.86E2,5.39E2,7.09E2,9.8E2,1.402E3,3.137E3,-4.212867E2,-3.909271E2,2.39E2,2.87E2,3.45E2,4.27E2,5.07E2,5.76E2,6.6E2,7.67E2,9.13E2,1.068E3,1.265E3,1.607E3,2.073E3,1E0,-3.3767105E2,-3.090072E2,2.75E2,2.98E2,3.24E2,3.67E2,4.06E2,4.49E2,4.89E2,5.24E2,5.6E2,5.98E2,6.4E2,6.89E2,7.5E2,8.07E2,8.71E2,9.5E2,1.021E3,1.096E3,1.214E3,1.348E3,1.507E3,1.735E3,1.925E3,2.608E3,1.2205225E3,4.89192E5,-2.893541E2,-2.7496677E2,-2.6308267E2,-2.5177495E2,-2.4505501E2,-2.2433696E2,-2.0491772E2,-1.8567528E2,-1.6571562E2,-1.4916766E2,-1.3097359E2,-1.1375928E2,-9.586312E1,-8.301986E1,-7.100948E1,-5.931321E1,-4.2188343E1,-2.991551E1,-1.7295881E1,-3.6275537E0,1.2517318E1,2.8604227E1,4.734707E1,6.370843E1,8.469627E1,1.0339667E2,1.2262064E2,1.503433E2,1.684432E2,1.8989633E2,2.1455733E2,2.3614769E2,2.573718E2,2.8626266E2,3.1268002E2,3.3741833E2,3.766826E2,4.0324603E2,4.4323633E2,4.7728418E2,5.1404663E2,5.623397E2,6.1481506E2,6.744069E2,7.240897E2,8.060088E2,8.7642645E2,9.6664484E2,1.5879297E3,9.535425E2],"split_indices":[2,2,2,2,2,2,2,3,2,2,2,2,2,2,2,0,0,2,2,2,2,2,2,2,2,2,2,2,2,2,5,0,0,2,2,2,2,2,2,2,2,2,2,2,2,2,2,2,2,2,2,2,2,2,2,2,2,0,0,0,0,0,0,0,0,0,0,0,0,0,0,0,0,0,0,0,0,0,0,0,0,0,0,0,0,0,0,0,0,0,0,0,0,0,0,0,0,0,0,0,0,0,0,0,0,0,0,0,0],"split_type":[0,0,0,0,0,0,0,0,0,0,0,0,0,0,0,0,0,0,0,0,0,0,0,0,0,0,0,0,0,0,0,0,0,0,0,0,0,0,0,0,0,0,0,0,0,0,0,0,0,0,0,0,0,0,0,0,0,0,0,0,0,0,0,0,0,0,0,0,0,0,0,0,0,0,0,0,0,0,0,0,0,0,0,0,0,0,0,0,0,0,0,0,0,0,0,0,0,0,0,0,0,0,0,0,0,0,0,0,0],"sum_hessian":[4.09605E5,2.07596E5,2.02009E5,7.8727E4,1.28869E5,1.66107E5,3.5902E4,7.0836E4,7.891E3,5.172E4,7.7149E4,1.00982E5,6.5125E4,2.7935E4,7.967E3,6.9536E4,1.3E3,2.626E3,5.265E3,1.7151E4,3.4569E4,3.4521E4,4.2628E4,4.784E4,5.3142E4,3.7226E4,2.7899E4,1.7222E4,1.0713E4,6.606E3,1.361E3,1.283E3,1.343E3,2.648E3,2.617E3,6.583E3,1.0568E4,1.4554E4,2.0015E4,1.6976E4,1.7545E4,2.0715E4,2.1913E4,2.3863E4,2.3977E4,2.5302E4,2.784E4,2.1183E4,1.6043E4,1.5907E4,1.1992E4,9.303E3,7.919E3,6.72E3,3.993E3,2.637E3,3.969E3,1.328E3,3.3E1,1.383E3,1.265E3,1.322E3,1.295E3,2.618E3,3.965E3,5.056E3,5.512E3,6.591E3,7.963E3,9.168E3,1.0847E4,7.842E3,9.134E3,9.56E3,7.985E3,1.169E4,9.025E3,1.2211E4,9.702E3,1.3121E4,1.0742E4,1.4362E4,9.615E3,1.827E4,7.032E3,1.5444E4,1.2396E4,9.046E3,1.2137E4,9.274E3,6.769E3,7.98E3,7.927E3,4.035E3,7.957E3,5.147E3,4.156E3,5.266E3,2.653E3,4E3,2.72E3,2.649E3,1.344E3,1.316E3,1.321E3,2.659E3,1.31E3,2.6E1,7E0],"tree_param":{"num_deleted":"0","num_feature":"7","num_nodes":"109","size_leaf_vector":"1"}},{"base_weights":[-9.644939E-1,-3.7915866E2,7.745066E2,1.659122E3,6.025105E2,1.5634613E3,1.9851322E3,7.2944165E2,1.2314375E2,1.562634E3,1.2842406E3,1.9898866E3,7.0524146E2,8.5820703E2,6.85193E2,9.4019066E1,1.2666377E3,1.6106052E3,1.5119286E3,1.9841349E3,2.3483806E3,3.1625603E3,-5.075568E2,8.585765E2,-1.9065063E3,6.109991E2,8.323592E2,9.366977E1,5.14479E2,1.2043961E3,3.6615078E3,1.6127849E2,-2.2063803E1,1.3349165E2,1.5178305E2,1.9866661E2,1.2959982E2,2.4688908E2,1.985742E2,-1.0913283E2,4.6714673E2,-1.2105938E2,1.2304876E2,7.89988E1,8.6783485E1,1.4666553E1,-2.2207689E2,6.0892548E1,1.772076E2,8.291436E1,3.6812747E2,3.6899204E0,9.602887E0,4.654003E2,1.1649292E2,-3.666621E1,3.7835864E2],"categories":[],"categories_nodes":[],"categories_segments":[],"categories_sizes":[],"default_left":[0,0,0,0,0,0,0,0,0,0,0,0,0,0,0,0,0,0,0,0,0,0,0,0,0,0,0,0,0,0,0,0,0,0,0,0,0,0,0,0,0,0,0,0,0,0,0,0,0,0,0,0,0,0,0,0,0],"id":4,"left_children":[1,-1,3,5,7,9,11,13,15,17,-1,19,21,23,25,27,29,31,33,35,37,39,41,43,45,47,49,51,-1,53,55,-1,-1,-1,-1,-1,-1,-1,-1,-1,-1,-1,-1,-1,-1,-1,-1,-1,-1,-1,-1,-1,-1,-1,-1,-1,-1],"loss_changes":[1.2038119E12,0E0,5.1726483E10,1.7227776E9,1.7319027E10,3.7923226E8,7.497318E7,1.2816548E9,1.9844943E9,1.0164634E8,0E0,2.1127168E7,1.4465632E8,6.0420096E7,1.8283479E9,1.0203946E8,2.1619942E8,8.805581E7,1.972224E7,1.8866176E7,3.488192E6,1.0779766E8,4.1812628E7,3.586048E7,5.487586E6,2.6702643E8,5.1120947E8,7.778816E6,0E0,1.9117184E8,1.9582208E7,0E0,0E0,0E0,0E0,0E0,0E0,0E0,0E0,0E0,0E0,0E0,0E0,0E0,0E0,0E0,0E0,0E0,0E0,0E0,0E0,0E0,0E0,0E0,0E0,0E0,0E0],"parents":[2147483647,0,0,2,2,3,3,4,4,5,5,6,6,7,7,8,8,9,9,11,11,12,12,13,13,14,14,15,15,16,16,17,17,18,18,19,19,20,20,21,21,22,22,23,23,24,24,25,25,26,26,27,27,29,29,30,30],"right_children":[2,-1,4,6,8,10,12,14,16,18,-1,20,22,24,26,28,30,32,34,36,38,40,42,44,46,48,50,52,-1,54,56,-1,-1,-1,-1,-1,-1,-1,-1,-1,-1,-1,-1,-1,-1,-1,-1,-1,-1,-1,-1,-1,-1,-1,-1,-1,-1],"split_conditions":[1E0,-3.7915866E2,2E0,1E0,6E0,2E0,1E0,3E0,7E0,3.63932E5,1.2842406E3,7.00979E5,1.97373E5,1E0,5E0,1E0,1E0,1E0,3.75346E5,6.98187E5,7.09256E5,5.0218E4,5.39422E5,8.6249E4,1E0,1E0,1E0,2.793E4,5.14479E2,5.629E3,5.629E3,1.6127849E2,-2.2063803E1,1.3349165E2,1.5178305E2,1.9866661E2,1.2959982E2,2.4688908E2,1.985742E2,-1.0913283E2,4.6714673E2,-1.2105938E2,1.2304876E2,7.89988E1,8.6783485E1,1.4666553E1,-2.2207689E2,6.0892548E1,1.772076E2,8.291436E1,3.6812747E2,3.6899204E0,9.602887E0,4.654003E2,1.1649292E2,-3.666621E1,3.7835864E2],"split_indices":[3,0,1,6,1,5,5,1,1,0,0,0,0,5,1,5,6,5,0,0,0,0,0,0,6,5,5,0,0,0,0,0,0,0,0,0,0,0,0,0,0,0,0,0,0,0,0,0,0,0,0,0,0,0,0,0,0],"split_type":[0,0,0,0,0,0,0,0,0,0,0,0,0,0,0,0,0,0,0,0,0,0,0,0,0,0,0,0,0,0,0,0,0,0,0,0,0,0,0,0,0,0,0,0,0,0,0,0,0,0,0,0,0,0,0,0,0],"sum_hessian":[4.09525E5,6.955E4,3.39975E5,5.534E4,2.84635E5,4.279E4,1.255E4,2.25045E5,5.959E4,4.2788E4,2E0,1.2503E4,4.7E1,5.7551E4,1.67494E5,5.8111E4,1.479E3,2.1971E4,2.0817E4,1.2312E4,1.91E2,1.5E1,3.2E1,5.7544E4,7E0,1.11358E5,5.6136E4,5.8108E4,3E0,1.443E3,3.6E1,2.1945E4,2.6E1,6.79E2,2.0138E4,1.2265E4,4.7E1,1.39E2,5.2E1,4E0,1.1E1,2.3E1,9E0,6.854E3,5.069E4,1E0,6E0,1.11161E5,1.97E2,5.6074E4,6.2E1,2.319E3,5.5789E4,1.5E1,1.428E3,1E0,3.5E1],"tree_param":{"num_deleted":"0","num_feature":"7","num_nodes":"57","size_leaf_vector":"1"}},{"base_weights":[2.8269284E0,-1.6321853E3,2.119371E3,-3.226737E3,-6.7610254E2,1.475025E3,5.5855166E3,-3.4092024E3,-2.319053E3,-1.2623833E3,-2.6704034E2,8.940948E2,2.417165E3,4.67516E3,8.51832E3,-3.4151828E2,-3.078682E3,-2.6072795E3,-2.1520896E3,-1.5822877E3,-1.026978E3,-5.4349854E2,1.2973917E2,4.2076346E2,1.3367904E3,1.7199727E3,2.8783486E3,3.7322258E3,5.313603E3,7.859348E3,1.1132493E4,-3.0536227E2,-3.597104E2,-2.7404065E3,-2.466795E3,-2.2136443E3,-1.8206497E3,-1.6831249E3,-1.2510148E3,-1.1828063E3,-6.662913E2,-7.2563214E2,-6.752335E1,-1.6946098E2,3.2089536E2,2.0849596E2,9.8781976E2,9.725897E2,1.7189126E3,1.3822662E3,2.2428743E3,2.402857E3,3.346417E3,3.262113E3,4.6765605E3,4.6496865E3,6.2263486E3,6.790847E3,8.867694E3,1.0850659E4,1.3533263E3,-2.8320322E2,-2.6475134E2,-2.3582657E2,-2.5852145E2,-2.3216222E2,-2.1286003E2,-1.9865292E2,-1.7216351E2,-1.8587468E2,-1.5516534E2,-1.4678043E2,-1.1350036E2,-1.3101794E2,-1.0244376E2,-8.32077E1,-5.403072E1,-9.0217514E1,-4.938094E1,-3.2849224E1,2.2073065E1,1.4995348E0,-2.6202604E1,5.342286E1,2.0175116E1,8.36611E-1,5.538337E1,7.792614E1,1.4101976E2,7.530806E1,1.1279073E2,2.013505E2,1.5055728E2,1.1667074E2,1.9583E2,2.0416827E2,2.7181186E2,3.136285E2,2.1575288E2,3.9554608E2,3.098617E2,3.356093E2,2.9238972E1,4.821572E2,1.9605678E2,5.360969E2,4.2908536E2,6.800914E2,5.648603E2,7.063383E2,4.6739532E2,1.0306605E3,8.341655E2,9.873421E2,1.1651151E3],"categories":[],"categories_nodes":[],"categories_segments":[],"categories_sizes":[],"default_left":[0,0,0,0,0,0,0,0,0,0,0,0,0,0,0,0,0,0,0,0,0,0,0,0,0,0,0,0,0,0,0,0,0,0,0,0,0,0,0,0,0,0,0,0,0,0,0,0,0,0,0,0,0,0,0,0,0,0,0,0,0,0,0,0,0,0,0,0,0,0,0,0,0,0,0,0,0,0,0,0,0,0,0,0,0,0,0,0,0,0,0,0,0,0,0,0,0,0,0,0,0,0,0,0,0,0,0,0,0,0,0,0,0,0,0],"id":5,"left_children":[1,3,5,7,9,11,13,15,17,19,21,23,25,27,29,-1,31,33,35,37,39,41,43,45,47,49,51,53,55,57,59,-1,-1,61,63,65,67,69,71,73,75,77,79,81,83,85,87,89,91,93,95,97,99,101,103,105,107,109,111,113,-1,-1,-1,-1,-1,-1,-1,-1,-1,-1,-1,-1,-1,-1,-1,-1,-1,-1,-1,-1,-1,-1,-1,-1,-1,-1,-1,-1,-1,-1,-1,-1,-1,-1,-1,-1,-1,-1,-1,-1,-1,-1,-1,-1,-1,-1,-1,-1,-1,-1,-1,-1,-1,-1,-1],"loss_changes":[1.4186837E12,3.5260177E11,3.990284E11,1.4350811E10,3.4676716E10,8.245782E10,7.473588E10,1.3212058E8,6.928466E8,4.47343E9,9.342618E9,1.952831E10,1.8471977E10,1.2848136E10,1.1339006E10,0E0,5.813248E6,9.271706E7,1.8358682E8,8.3932365E8,1.9234529E9,4.351497E9,2.0004129E9,5.4213924E9,6.7003023E9,4.0373944E9,7.6892733E9,3.8173082E9,7.69314E9,5.6511693E9,7.55073E8,0E0,0E0,1.5671296E7,2.7292672E7,6.623232E7,2.0329984E7,4.4292096E8,1.4626611E8,4.8088474E8,2.1532723E8,1.485357E9,1.0451779E9,2.3281075E8,5.423255E8,2.2651538E9,1.079594E9,8.398643E8,1.4738391E9,1.724289E9,8.527913E8,3.0808392E9,2.617688E9,1.6085647E9,1.1197153E9,1.860862E9,1.7418486E9,1.4543094E9,1.9758612E9,8.2213274E8,0E0,0E0,0E0,0E0,0E0,0E0,0E0,0E0,0E0,0E0,0E0,0E0,0E0,0E0,0E0,0E0,0E0,0E0,0E0,0E0,0E0,0E0,0E0,0E0,0E0,0E0,0E0,0E0,0E0,0E0,0E0,0E0,0E0,0E0,0E0,0E0,0E0,0E0,0E0,0E0,0E0,0E0,0E0,0E0,0E0,0E0,0E0,0E0,0E0,0E0,0E0,0E0,0E0,0E0,0E0],"parents":[2147483647,0,0,1,1,2,2,3,3,4,4,5,5,6,6,7,7,8,8,9,9,10,10,11,11,12,12,13,13,14,14,16,16,17,17,18,18,19,19,20,20,21,21,22,22,23,23,24,24,25,25,26,26,27,27,28,28,29,29,30,30,33,33,34,34,35,35,36,36,37,37,38,38,39,39,40,40,41,41,42,42,43,43,44,44,45,45,46,46,47,47,48,48,49,49,50,50,51,51,52,52,53,53,54,54,55,55,56,56,57,57,58,58,59,59],"right_children":[2,4,6,8,10,12,14,16,18,20,22,24,26,28,30,-1,32,34,36,38,40,42,44,46,48,50,52,54,56,58,60,-1,-1,62,64,66,68,70,72,74,76,78,80,82,84,86,88,90,92,94,96,98,100,102,104,106,108,110,112,114,-1,-1,-1,-1,-1,-1,-1,-1,-1,-1,-1,-1,-1,-1,-1,-1,-1,-1,-1,-1,-1,-1,-1,-1,-1,-1,-1,-1,-1,-1,-1,-1,-1,-1,-1,-1,-1,-1,-1,-1,-1,-1,-1,-1,-1,-1,-1,-1,-1,-1,-1,-1,-1,-1,-1],"split_conditions":[6.6E2,3.51E2,1.247E3,2.39E2,5.04E2,8.93E2,1.925E3,2.07E2,2.98E2,4.31E2,1E0,1E0,1E0,1E0,3.137E3,-3.4151828E2,7E0,2.75E2,1E0,1E0,1E0,6E0,5.7E2,6E0,7.67E2,1.043E3,1.021E3,1.552E3,1.468E3,1E0,7E0,-3.0536227E2,-3.597104E2,2.59E2,6E0,3.24E2,3.24E2,3.9E2,3.86E2,5E0,4.67E2,5.88E2,5.79E2,3E0,3E0,7.86E2,7.96E2,7.03E2,3E0,6E0,6E0,2E0,2E0,7E0,7E0,2E0,3E0,7E0,2E0,1E0,1.3533263E3,-2.8320322E2,-2.6475134E2,-2.3582657E2,-2.5852145E2,-2.3216222E2,-2.1286003E2,-1.9865292E2,-1.7216351E2,-1.8587468E2,-1.5516534E2,-1.4678043E2,-1.1350036E2,-1.3101794E2,-1.0244376E2,-8.32077E1,-5.403072E1,-9.0217514E1,-4.938094E1,-3.2849224E1,2.2073065E1,1.4995348E0,-2.6202604E1,5.342286E1,2.0175116E1,8.36611E-1,5.538337E1,7.792614E1,1.4101976E2,7.530806E1,1.1279073E2,2.013505E2,1.5055728E2,1.1667074E2,1.9583E2,2.0416827E2,2.7181186E2,3.136285E2,2.1575288E2,3.9554608E2,3.098617E2,3.356093E2,2.9238972E1,4.821572E2,1.9605678E2,5.360969E2,4.2908536E2,6.800914E2,5.648603E2,7.063383E2,4.6739532E2,1.0306605E3,8.341655E2,9.873421E2,1.1651151E3],"split_indices":[2,2,2,2,2,2,2,2,2,2,4,4,4,4,2,0,1,2,4,4,4,1,2,1,2,2,2,2,2,4,1,0,0,2,1,2,2,2,2,1,2,2,2,1,1,2,2,2,1,1,1,1,1,1,1,1,1,1,1,4,0,0,0,0,0,0,0,0,0,0,0,0,0,0,0,0,0,0,0,0,0,0,0,0,0,0,0,0,0,0,0,0,0,0,0,0,0,0,0,0,0,0,0,0,0,0,0,0,0,0,0,0,0,0,0],"split_type":[0,0,0,0,0,0,0,0,0,0,0,0,0,0,0,0,0,0,0,0,0,0,0,0,0,0,0,0,0,0,0,0,0,0,0,0,0,0,0,0,0,0,0,0,0,0,0,0,0,0,0,0,0,0,0,0,0,0,0,0,0,0,0,0,0,0,0,0,0,0,0,0,0,0,0,0,0,0,0,0,0,0,0,0,0,0,0,0,0,0,0,0,0,0,0,0,0,0,0,0,0,0,0,0,0,0,0,0,0,0,0,0,0,0,0],"sum_hessian":[4.09954E5,2.31287E5,1.78667E5,8.6695E4,1.44592E5,1.50661E5,2.8006E4,7.2182E4,1.4513E4,5.9423E4,8.5169E4,9.3197E4,5.7464E4,2.1374E4,6.632E3,7.089E4,1.292E3,5.318E3,9.195E3,2.5188E4,3.4235E4,5.0195E4,3.4974E4,4.5041E4,4.8156E4,2.288E4,3.4584E4,8.632E3,1.2742E4,5.3E3,1.332E3,1.239E3,5.3E1,2.721E3,2.597E3,7.75E3,1.445E3,1.9307E4,5.881E3,2.3905E4,1.033E4,3.6303E4,1.3892E4,1.3634E4,2.134E4,3.2774E4,1.2267E4,2.4658E4,2.3498E4,1.3904E4,8.976E3,1.7159E4,1.7425E4,5.766E3,2.866E3,7.38E3,5.362E3,2.577E3,2.723E3,1.197E3,1.35E2,1.355E3,1.366E3,1.366E3,1.231E3,3.403E3,4.347E3,5.33E2,9.12E2,8.26E3,1.1047E4,2.046E3,3.835E3,1.3245E4,1.066E4,4.458E3,5.872E3,2.0607E4,1.5696E4,7.291E3,6.601E3,4.556E3,9.078E3,7.646E3,1.3694E4,2.075E4,1.2024E4,8.214E3,4.053E3,1.022E4,1.4438E4,9.866E3,1.3632E4,1.012E4,3.784E3,6.31E3,2.666E3,4.298E3,1.2861E4,5.035E3,1.239E4,5.589E3,1.77E2,2.72E3,1.46E2,2.47E3,4.91E3,2.683E3,2.679E3,2.281E3,2.96E2,7.24E2,1.999E3,5.45E2,6.52E2],"tree_param":{"num_deleted":"0","num_feature":"7","num_nodes":"115","size_leaf_vector":"1"}},{"base_weights":[3.837322E0,4.9483777E2,-2.9672405E3,-1.9206969E2,1.3486921E3,-2.9686877E3,-2.7964783E3,-7.163206E1,-2.963476E2,1.4671814E3,-2.879558E3,-2.9706323E3,-2.862385E2,-2.6479404E2,-2.9565034E3,-2.2371109E2,1.1128986E2,2.4521094E3,1.2142008E3,-2.8159214E3,-2.9756833E2,-2.880246E2,-2.9724454E2,-2.9777048E2,-1.6510278E2,-3.0355304E2,1.156849E1,2.0182822E2,6.946633E1,2.4768833E3,2.364371E3,1.5295493E3,1.1049675E3,-3.0183795E2,-2.7408877E3,-3.6559544E1,-2.4155313E1,6.5745834E1,-1.6607489E1,2.1990313E1,1.5545351E1,-7.084629E-1,7.2958465E0,2.5351823E2,2.4523416E2,2.3682945E2,1.23766396E2,1.5358385E2,1.4005986E2,1.0736763E2,1.2337103E2,-2.6082883E2,-2.874382E2],"categories":[],"categories_nodes":[],"categories_segments":[],"categories_sizes":[],"default_left":[0,0,0,0,0,0,0,0,0,0,0,0,0,0,0,0,0,0,0,0,0,0,0,0,0,0,0,0,0,0,0,0,0,0,0,0,0,0,0,0,0,0,0,0,0,0,0,0,0,0,0,0,0],"id":6,"left_children":[1,3,5,7,9,11,13,15,-1,17,19,21,-1,-1,23,25,27,29,31,33,-1,-1,-1,-1,-1,35,37,39,41,43,45,47,49,-1,51,-1,-1,-1,-1,-1,-1,-1,-1,-1,-1,-1,-1,-1,-1,-1,-1,-1,-1],"loss_changes":[5.9819865E11,2.063998E11,6.06208E6,6.5093546E10,7.860548E10,3.407872E6,4.198912E6,5.199263E9,0E0,3.8023004E10,1.7784832E7,6.88128E5,0E0,0E0,1.587968E6,1.9170872E9,3.212667E8,6.193152E7,4.1810166E9,3.1102976E7,0E0,0E0,0E0,0E0,0E0,2.930089E8,2.9670054E9,2.2437632E7,1.5515584E7,2.8540928E7,2.7516928E7,2.3175168E7,3.6200448E8,0E0,2.6169344E7,0E0,0E0,0E0,0E0,0E0,0E0,0E0,0E0,0E0,0E0,0E0,0E0,0E0,0E0,0E0,0E0,0E0,0E0],"parents":[2147483647,0,0,1,1,2,2,3,3,4,4,5,5,6,6,7,7,9,9,10,10,11,11,14,14,15,15,16,16,17,17,18,18,19,19,25,25,26,26,27,27,28,28,29,29,30,30,31,31,32,32,34,34],"right_children":[2,4,6,8,10,12,14,16,-1,18,20,22,-1,-1,24,26,28,30,32,34,-1,-1,-1,-1,-1,36,38,40,42,44,46,48,50,-1,52,-1,-1,-1,-1,-1,-1,-1,-1,-1,-1,-1,-1,-1,-1,-1,-1,-1,-1],"split_conditions":[7E0,1E0,7.06537E5,1E0,1E0,1E0,7.09256E5,5E0,-2.963476E2,2E0,1E0,1.3916E4,-2.862385E2,-2.6479404E2,1E0,1E0,6E0,1E0,3E0,4E0,-2.9756833E2,-2.880246E2,-2.9724454E2,-2.9777048E2,-1.6510278E2,3E0,2E0,1E0,3.0774E4,2.08435E5,7.09256E5,6.78812E5,1E0,-3.0183795E2,5E0,-3.6559544E1,-2.4155313E1,6.5745834E1,-1.6607489E1,2.1990313E1,1.5545351E1,-7.084629E-1,7.2958465E0,2.5351823E2,2.4523416E2,2.3682945E2,1.23766396E2,1.5358385E2,1.4005986E2,1.0736763E2,1.2337103E2,-2.6082883E2,-2.874382E2],"split_indices":[1,4,0,5,5,6,0,1,0,1,6,0,0,0,6,6,1,6,1,1,0,0,0,0,0,1,1,6,0,0,0,0,6,0,1,0,0,0,0,0,0,0,0,0,0,0,0,0,0,0,0,0,0],"split_type":[0,0,0,0,0,0,0,0,0,0,0,0,0,0,0,0,0,0,0,0,0,0,0,0,0,0,0,0,0,0,0,0,0,0,0,0,0,0,0,0,0,0,0,0,0,0,0,0,0,0,0,0,0],"sum_hessian":[4.1006E5,3.51905E5,5.8155E4,1.95018E5,1.56887E5,5.765E4,5.05E2,1.86897E5,8.121E3,1.52611E5,4.276E3,5.6588E4,1.062E3,2.71E2,2.34E2,1.02052E5,8.4845E4,3.1186E4,1.21425E5,2.591E3,1.685E3,1.144E3,5.5444E4,2.29E2,5E0,7.6195E4,2.5857E4,2.6808E4,5.8037E4,2.4298E4,6.888E3,3.1236E4,9.0189E4,6.9E2,1.901E3,3.8082E4,3.8113E4,5.577E3,2.028E4,1.9287E4,7.521E3,2.532E3,5.5505E4,7.168E3,1.713E4,6.863E3,2.5E1,2.9773E4,1.463E3,7.2562E4,1.7627E4,9.64E2,9.37E2],"tree_param":{"num_deleted":"0","num_feature":"7","num_nodes":"53","size_leaf_vector":"1"}},{"base_weights":[2.3476372E0,-1.2764058E3,2.0235376E3,-2.569834E3,-4.7558032E2,1.4155802E3,5.0326357E3,-2.7745586E3,-1.8422977E3,-9.526415E2,-7.9306305E1,9.5701843E2,2.2947686E3,4.1742925E3,7.605883E3,-2.7861377E3,-2.465787E3,-2.0665085E3,-1.6698599E3,-1.211215E3,-7.305322E2,-2.9068948E2,1.9004146E2,5.6708075E2,1.2967123E3,1.7469882E3,2.641128E3,3.4152844E3,4.703399E3,7.026184E3,9.941238E3,-2.8249915E3,-2.7757086E2,-2.5467705E3,-2.3828088E3,-1.9686982E3,-2.2049429E3,-1.7156198E3,-1.4963918E3,-1.371075E3,-1.10072E3,-8.5505005E2,-4.8987628E2,-4.5949326E2,1.6609023E2,-3.0826782E1,4.0911682E2,3.7414633E2,1.0802239E3,9.657652E2,1.6250764E3,1.5063279E3,2.297933E3,2.3474287E3,3.1421377E3,2.9711199E3,4.2300415E3,4.173828E3,5.544311E3,6.1367354E3,7.8740845E3,9.681083E3,1.2363363E3,-2.802337E2,-2.9683957E2,-2.887762E2,-2.5246382E2,-2.3093916E2,-2.4448454E2,-2.2322977E2,-1.9235255E2,-2.2770915E2,-2.080303E2,-1.7889957E2,-1.6243199E2,-1.6207397E2,-1.4135454E2,-1.433109E2,-1.1776009E2,-1.1841719E2,-8.7938194E1,-9.807678E1,-5.705367E1,-5.7074993E1,-3.5712482E1,-6.4779495E1,-2.7697279E1,-6.6424327E0,4.131757E1,-1.2554755E1,8.101635E0,5.335351E1,2.3581758E1,1.75631E1,6.843707E1,8.584045E1,1.5345793E2,7.943976E1,1.1360891E2,1.8801079E2,1.4350697E2,1.3466383E2,1.9402289E2,2.337744E2,-2.2339656E0,2.927703E2,2.1309953E2,3.4116553E2,2.8575302E2,3.05363E2,4.7855095E1,4.3387338E2,1.9875284E2,4.760541E2,3.8809433E2,6.421083E2,5.1998834E2,5.7498566E2,7.047666E2,8.696959E2,7.162544E2,8.753757E2,1.0414257E3],"categories":[],"categories_nodes":[],"categories_segments":[],"categories_sizes":[],"default_left":[0,0,0,0,0,0,0,0,0,0,0,0,0,0,0,0,0,0,0,0,0,0,0,0,0,0,0,0,0,0,0,0,0,0,0,0,0,0,0,0,0,0,0,0,0,0,0,0,0,0,0,0,0,0,0,0,0,0,0,0,0,0,0,0,0,0,0,0,0,0,0,0,0,0,0,0,0,0,0,0,0,0,0,0,0,0,0,0,0,0,0,0,0,0,0,0,0,0,0,0,0,0,0,0,0,0,0,0,0,0,0,0,0,0,0,0,0,0,0,0,0,0,0],"id":7,"left_children":[1,3,5,7,9,11,13,15,17,19,21,23,25,27,29,31,33,35,37,39,41,43,45,47,49,51,53,55,57,59,61,63,-1,65,67,69,71,73,75,77,79,81,83,85,87,89,91,93,95,97,99,101,103,105,107,109,111,113,115,117,119,121,-1,-1,-1,-1,-1,-1,-1,-1,-1,-1,-1,-1,-1,-1,-1,-1,-1,-1,-1,-1,-1,-1,-1,-1,-1,-1,-1,-1,-1,-1,-1,-1,-1,-1,-1,-1,-1,-1,-1,-1,-1,-1,-1,-1,-1,-1,-1,-1,-1,-1,-1,-1,-1,-1,-1,-1,-1,-1,-1,-1,-1],"loss_changes":[1.05996655E12,2.6018188E11,2.9072163E11,1.4301266E10,2.9328101E10,5.3299855E10,5.8965623E10,2.612265E8,8.1217126E8,4.0418918E9,4.825061E9,1.1508933E10,8.593703E9,8.0286843E9,8.97355E9,2.1364736E7,1.219584E7,1.1977933E8,9.213338E7,5.730017E8,1.1343626E9,3.6612308E9,1.803098E9,4.00486E9,5.044789E9,2.324562E9,4.0776827E9,2.9664788E9,5.2321157E9,3.990225E9,7.158661E8,4.11648E7,0E0,2.980864E6,5.39136E5,5.977907E7,2.931712E7,6.0286976E7,2.3443456E7,1.578066E8,3.542876E8,8.920412E8,1.38453E8,1.1913912E9,7.361467E8,1.9660056E8,4.0324864E8,1.8106427E9,1.1127572E9,6.742139E8,1.1267564E9,8.443146E8,4.9294336E8,2.1923512E9,7.770276E8,1.0949222E9,6.9872435E8,1.2265062E9,1.3427507E9,8.8211456E8,1.5408333E9,7.2605696E8,0E0,0E0,0E0,0E0,0E0,0E0,0E0,0E0,0E0,0E0,0E0,0E0,0E0,0E0,0E0,0E0,0E0,0E0,0E0,0E0,0E0,0E0,0E0,0E0,0E0,0E0,0E0,0E0,0E0,0E0,0E0,0E0,0E0,0E0,0E0,0E0,0E0,0E0,0E0,0E0,0E0,0E0,0E0,0E0,0E0,0E0,0E0,0E0,0E0,0E0,0E0,0E0,0E0,0E0,0E0,0E0,0E0,0E0,0E0,0E0,0E0],"parents":[2147483647,0,0,1,1,2,2,3,3,4,4,5,5,6,6,7,7,8,8,9,9,10,10,11,11,12,12,13,13,14,14,15,15,16,16,17,17,18,18,19,19,20,20,21,21,22,22,23,23,24,24,25,25,26,26,27,27,28,28,29,29,30,30,31,31,33,33,34,34,35,35,36,36,37,37,38,38,39,39,40,40,41,41,42,42,43,43,44,44,45,45,46,46,47,47,48,48,49,49,50,50,51,51,52,52,53,53,54,54,55,55,56,56,57,57,58,58,59,59,60,60,61,61],"right_children":[2,4,6,8,10,12,14,16,18,20,22,24,26,28,30,32,34,36,38,40,42,44,46,48,50,52,54,56,58,60,62,64,-1,66,68,70,72,74,76,78,80,82,84,86,88,90,92,94,96,98,100,102,104,106,108,110,112,114,116,118,120,122,-1,-1,-1,-1,-1,-1,-1,-1,-1,-1,-1,-1,-1,-1,-1,-1,-1,-1,-1,-1,-1,-1,-1,-1,-1,-1,-1,-1,-1,-1,-1,-1,-1,-1,-1,-1,-1,-1,-1,-1,-1,-1,-1,-1,-1,-1,-1,-1,-1,-1,-1,-1,-1,-1,-1,-1,-1,-1,-1,-1,-1],"split_conditions":[7E2,3.86E2,1.265E3,2.75E2,5.41E2,9.45E2,1.925E3,2.39E2,3.38E2,4.69E2,1E0,1E0,1E0,1E0,3.137E3,7E0,2.59E2,6E0,1E0,4.24E2,1E0,6E0,6.22E2,6E0,8.07E2,1.115E3,1.105E3,1.552E3,1.507E3,1E0,7E0,6E0,-2.7757086E2,2E0,6E0,2E0,3.16E2,3.67E2,3.62E2,1E0,1E0,6E0,5.17E2,6.13E2,6.15E2,5.86E2,4E0,8.23E2,8.42E2,7.5E2,3E0,6E0,7E0,2E0,3E0,7E0,7E0,2E0,2E0,2.608E3,3E0,1E0,1.2363363E3,-2.802337E2,-2.9683957E2,-2.887762E2,-2.5246382E2,-2.3093916E2,-2.4448454E2,-2.2322977E2,-1.9235255E2,-2.2770915E2,-2.080303E2,-1.7889957E2,-1.6243199E2,-1.6207397E2,-1.4135454E2,-1.433109E2,-1.1776009E2,-1.1841719E2,-8.7938194E1,-9.807678E1,-5.705367E1,-5.7074993E1,-3.5712482E1,-6.4779495E1,-2.7697279E1,-6.6424327E0,4.131757E1,-1.2554755E1,8.101635E0,5.335351E1,2.3581758E1,1.75631E1,6.843707E1,8.584045E1,1.5345793E2,7.943976E1,1.1360891E2,1.8801079E2,1.4350697E2,1.3466383E2,1.9402289E2,2.337744E2,-2.2339656E0,2.927703E2,2.1309953E2,3.4116553E2,2.8575302E2,3.05363E2,4.7855095E1,4.3387338E2,1.9875284E2,4.760541E2,3.8809433E2,6.421083E2,5.1998834E2,5.7498566E2,7.047666E2,8.696959E2,7.162544E2,8.753757E2,1.0414257E3],"split_indices":[2,2,2,2,2,2,2,2,2,2,4,4,4,4,2,1,2,1,4,2,4,1,2,1,2,2,2,2,2,4,1,1,0,1,1,1,2,2,2,4,4,1,2,2,2,2,1,2,2,2,1,1,1,1,1,1,1,1,1,2,1,4,0,0,0,0,0,0,0,0,0,0,0,0,0,0,0,0,0,0,0,0,0,0,0,0,0,0,0,0,0,0,0,0,0,0,0,0,0,0,0,0,0,0,0,0,0,0,0,0,0,0,0,0,0,0,0,0,0,0,0,0,0],"split_type":[0,0,0,0,0,0,0,0,0,0,0,0,0,0,0,0,0,0,0,0,0,0,0,0,0,0,0,0,0,0,0,0,0,0,0,0,0,0,0,0,0,0,0,0,0,0,0,0,0,0,0,0,0,0,0,0,0,0,0,0,0,0,0,0,0,0,0,0,0,0,0,0,0,0,0,0,0,0,0,0,0,0,0,0,0,0,0,0,0,0,0,0,0,0,0,0,0,0,0,0,0,0,0,0,0,0,0,0,0,0,0,0,0,0,0,0,0,0,0,0,0,0,0],"sum_hessian":[4.10106E5,2.51187E5,1.58919E5,9.6051E4,1.55136E5,1.32209E5,2.671E4,7.4956E4,2.1095E4,7.0392E4,8.4744E4,8.6891E4,4.5318E4,2.0031E4,6.679E3,7.2239E4,2.717E3,9.166E3,1.1929E4,3.2524E4,3.7868E4,4.7481E4,3.7263E4,4.0455E4,4.6436E4,1.7557E4,2.7761E4,8.231E3,1.18E4,5.354E3,1.325E3,1.523E4,5.7009E4,1.36E3,1.357E3,5.38E3,3.786E3,9.432E3,2.497E3,1.3288E4,1.9236E4,2.4954E4,1.2914E4,3.4669E4,1.2812E4,1.8556E4,1.8707E4,2.9402E4,1.1053E4,2.3129E4,2.3307E4,1.2222E4,5.335E3,1.7505E4,1.0256E4,5.33E3,2.901E3,7.244E3,4.556E3,2.617E3,2.737E3,1.201E3,1.24E2,1.317E4,2.06E3,7.5E1,1.285E3,6.39E2,7.18E2,7.8E2,4.6E3,2.387E3,1.399E3,5.219E3,4.213E3,9.91E2,1.506E3,1.0057E4,3.231E3,1.3966E4,5.27E3,1.7305E4,7.649E3,8.023E3,4.891E3,1.7063E4,1.7606E4,6.601E3,6.211E3,1.0047E4,8.509E3,1.0888E4,7.819E3,1.793E4,1.1472E4,7.429E3,3.624E3,1.1532E4,1.1597E4,9.947E3,1.336E4,8.937E3,3.285E3,5.245E3,9E1,4.752E3,1.2753E4,5.262E3,4.994E3,5.159E3,1.71E2,2.766E3,1.35E2,2.407E3,4.837E3,1.28E3,3.276E3,1.842E3,7.75E2,1.264E3,1.473E3,5.36E2,6.65E2],"tree_param":{"num_deleted":"0","num_feature":"7","num_nodes":"123","size_leaf_vector":"1"}},{"base_weights":[-9.431692E-1,-1.1495216E3,1.8165017E3,-2.3250015E3,-4.365109E2,1.2895862E3,4.60995E3,-2.4970864E3,-1.6767709E3,-8.6679755E2,-7.2002235E1,8.717886E2,2.1020623E3,3.700811E3,6.577232E3,-2.5075242E3,-2.2205613E3,-1.8633011E3,-1.5147977E3,-1.1265181E3,-6.777598E2,-2.6211914E2,1.6846217E2,5.225064E2,1.176246E3,1.6037292E3,2.415162E3,2.9833623E3,4.1988516E3,6.116435E3,8.9167E3,-2.542333E3,-2.49818E2,-2.2974004E3,-2.1418713E3,-1.7754702E3,-1.985155E3,-1.5566123E3,-1.3540872E3,-1.19131E3,-9.372574E2,-7.9111206E2,-4.5581262E2,-4.1306207E2,1.453008E2,-5.3130484E0,3.928174E2,2.5975598E2,8.5487384E2,8.806574E2,1.4881011E3,1.322941E3,1.9948243E3,2.1172192E3,2.8734517E3,2.564879E3,3.4309065E3,3.66714E3,4.6842383E3,5.289005E3,6.868919E3,8.676616E3,1.1080978E4,-2.5219485E2,-2.6739093E2,-2.6307904E2,-2.2724637E2,-2.0687637E2,-2.2070894E2,-2.0102068E2,-1.7349486E2,-2.0521843E2,-1.8712743E2,-1.6260846E2,-1.4882559E2,-1.4760709E2,-1.2941931E2,-1.2955003E2,-1.0930422E2,-1.0637797E2,-8.110165E1,-9.010123E1,-5.395463E1,-5.798019E1,-3.5625378E1,-5.4943916E1,-1.917484E1,-9.402785E0,3.557873E1,9.0577E0,-1.3315877E1,5.063732E1,2.3522726E1,8.041656E0,5.3363476E1,6.208304E1,1.16663124E2,7.020464E1,1.0113439E2,1.7357329E2,1.3023253E2,1.1080212E2,1.6032872E2,1.80591E2,2.4092827E2,2.6391052E2,1.9210046E2,3.2678726E2,2.7021176E2,2.6356763E2,2.3751503E1,3.5216296E2,1.39253E2,4.179708E2,3.4058212E2,5.4195935E2,4.3875803E2,5.497545E2,3.5517615E2,6.361342E2,7.7243616E2,8.008966E2,9.216313E2,1.00355286E3,1.2227252E3],"categories":[],"categories_nodes":[],"categories_segments":[],"categories_sizes":[],"default_left":[0,0,0,0,0,0,0,0,0,0,0,0,0,0,0,0,0,0,0,0,0,0,0,0,0,0,0,0,0,0,0,0,0,0,0,0,0,0,0,0,0,0,0,0,0,0,0,0,0,0,0,0,0,0,0,0,0,0,0,0,0,0,0,0,0,0,0,0,0,0,0,0,0,0,0,0,0,0,0,0,0,0,0,0,0,0,0,0,0,0,0,0,0,0,0,0,0,0,0,0,0,0,0,0,0,0,0,0,0,0,0,0,0,0,0,0,0,0,0,0,0,0,0,0,0],"id":8,"left_children":[1,3,5,7,9,11,13,15,17,19,21,23,25,27,29,31,33,35,37,39,41,43,45,47,49,51,53,55,57,59,61,63,-1,65,67,69,71,73,75,77,79,81,83,85,87,89,91,93,95,97,99,101,103,105,107,109,111,113,115,117,119,121,123,-1,-1,-1,-1,-1,-1,-1,-1,-1,-1,-1,-1,-1,-1,-1,-1,-1,-1,-1,-1,-1,-1,-1,-1,-1,-1,-1,-1,-1,-1,-1,-1,-1,-1,-1,-1,-1,-1,-1,-1,-1,-1,-1,-1,-1,-1,-1,-1,-1,-1,-1,-1,-1,-1,-1,-1,-1,-1,-1,-1,-1,-1],"loss_changes":[8.558576E11,2.1055983E11,2.3368797E11,1.0576593E10,2.4526453E10,4.5340295E10,4.5037715E10,2.1076378E8,5.984502E8,3.5203236E9,3.8703905E9,9.380303E9,7.07371E9,6.1455237E9,8.5286257E9,1.7137664E7,1.1616256E7,9.542042E7,6.950707E7,3.6931994E8,1.04393114E9,2.907646E9,1.4573894E9,3.587717E9,4.343263E9,1.9197788E9,3.7974835E9,1.3144023E9,2.6075464E9,4.1072394E9,5.83508E8,3.408691E7,0E0,5.41184E6,1.947136E6,4.770509E7,2.565632E7,3.7709824E7,1.4221312E7,2.2896026E8,1.2226765E8,7.591178E8,1.7304474E8,1.0411464E9,6.4393254E8,2.5826293E8,2.9186048E8,1.1270511E9,1.3227848E9,5.641441E8,1.0527498E9,6.123725E8,5.6831386E8,1.7239818E9,7.3263514E8,6.016123E8,6.258852E8,6.3646106E8,1.1352474E9,1.1303649E9,1.4627635E9,3.5210035E8,2.948608E7,0E0,0E0,0E0,0E0,0E0,0E0,0E0,0E0,0E0,0E0,0E0,0E0,0E0,0E0,0E0,0E0,0E0,0E0,0E0,0E0,0E0,0E0,0E0,0E0,0E0,0E0,0E0,0E0,0E0,0E0,0E0,0E0,0E0,0E0,0E0,0E0,0E0,0E0,0E0,0E0,0E0,0E0,0E0,0E0,0E0,0E0,0E0,0E0,0E0,0E0,0E0,0E0,0E0,0E0,0E0,0E0,0E0,0E0,0E0,0E0,0E0,0E0],"parents":[2147483647,0,0,1,1,2,2,3,3,4,4,5,5,6,6,7,7,8,8,9,9,10,10,11,11,12,12,13,13,14,14,15,15,16,16,17,17,18,18,19,19,20,20,21,21,22,22,23,23,24,24,25,25,26,26,27,27,28,28,29,29,30,30,31,31,33,33,34,34,35,35,36,36,37,37,38,38,39,39,40,40,41,41,42,42,43,43,44,44,45,45,46,46,47,47,48,48,49,49,50,50,51,51,52,52,53,53,54,54,55,55,56,56,57,57,58,58,59,59,60,60,61,61,62,62],"right_children":[2,4,6,8,10,12,14,16,18,20,22,24,26,28,30,32,34,36,38,40,42,44,46,48,50,52,54,56,58,60,62,64,-1,66,68,70,72,74,76,78,80,82,84,86,88,90,92,94,96,98,100,102,104,106,108,110,112,114,116,118,120,122,124,-1,-1,-1,-1,-1,-1,-1,-1,-1,-1,-1,-1,-1,-1,-1,-1,-1,-1,-1,-1,-1,-1,-1,-1,-1,-1,-1,-1,-1,-1,-1,-1,-1,-1,-1,-1,-1,-1,-1,-1,-1,-1,-1,-1,-1,-1,-1,-1,-1,-1,-1,-1,-1,-1,-1,-1,-1,-1,-1,-1,-1,-1],"split_conditions":[7E2,3.82E2,1.284E3,2.75E2,5.41E2,9.5E2,1.821E3,2.39E2,3.38E2,4.61E2,1E0,1E0,1E0,1E0,3.137E3,7E0,2.59E2,6E0,1E0,1E0,1E0,6E0,6.32E2,5E0,8.12E2,1.086E3,1.105E3,1.468E3,1.434E3,1E0,7E0,6E0,-2.49818E2,2E0,6E0,2E0,3.16E2,3.62E2,3.57E2,4.24E2,4.27E2,6E0,5.01E2,6.32E2,6.08E2,4E0,4E0,8.23E2,8.15E2,7.44E2,3E0,5E0,6E0,2E0,2E0,7E0,7E0,2E0,2E0,7E0,2.283E3,1E0,4.00101E5,-2.5219485E2,-2.6739093E2,-2.6307904E2,-2.2724637E2,-2.0687637E2,-2.2070894E2,-2.0102068E2,-1.7349486E2,-2.0521843E2,-1.8712743E2,-1.6260846E2,-1.4882559E2,-1.4760709E2,-1.2941931E2,-1.2955003E2,-1.0930422E2,-1.0637797E2,-8.110165E1,-9.010123E1,-5.395463E1,-5.798019E1,-3.5625378E1,-5.4943916E1,-1.917484E1,-9.402785E0,3.557873E1,9.0577E0,-1.3315877E1,5.063732E1,2.3522726E1,8.041656E0,5.3363476E1,6.208304E1,1.16663124E2,7.020464E1,1.0113439E2,1.7357329E2,1.3023253E2,1.1080212E2,1.6032872E2,1.80591E2,2.4092827E2,2.6391052E2,1.9210046E2,3.2678726E2,2.7021176E2,2.6356763E2,2.3751503E1,3.5216296E2,1.39253E2,4.179708E2,3.4058212E2,5.4195935E2,4.3875803E2,5.497545E2,3.5517615E2,6.361342E2,7.7243616E2,8.008966E2,9.216313E2,1.00355286E3,1.2227252E3],"split_indices":[2,2,2,2,2,2,2,2,2,2,4,4,4,4,2,1,2,1,4,4,4,1,2,1,2,2,2,2,2,4,1,1,0,1,1,1,2,2,2,2,2,1,2,2,2,1,1,2,2,2,1,1,1,1,1,1,1,1,1,1,2,4,0,0,0,0,0,0,0,0,0,0,0,0,0,0,0,0,0,0,0,0,0,0,0,0,0,0,0,0,0,0,0,0,0,0,0,0,0,0,0,0,0,0,0,0,0,0,0,0,0,0,0,0,0,0,0,0,0,0,0,0,0,0,0],"split_type":[0,0,0,0,0,0,0,0,0,0,0,0,0,0,0,0,0,0,0,0,0,0,0,0,0,0,0,0,0,0,0,0,0,0,0,0,0,0,0,0,0,0,0,0,0,0,0,0,0,0,0,0,0,0,0,0,0,0,0,0,0,0,0,0,0,0,0,0,0,0,0,0,0,0,0,0,0,0,0,0,0,0,0,0,0,0,0,0,0,0,0,0,0,0,0,0,0,0,0,0,0,0,0,0,0,0,0,0,0,0,0,0,0,0,0,0,0,0,0,0,0,0,0,0,0],"sum_hessian":[4.09994E5,2.51226E5,1.58768E5,9.4851E4,1.56375E5,1.33574E5,2.5194E4,7.4951E4,1.99E4,7.1716E4,8.4659E4,8.8214E4,4.536E4,1.7233E4,7.961E3,7.2217E4,2.734E3,9.244E3,1.0656E4,3.0208E4,4.1508E4,4.7279E4,3.738E4,4.1084E4,4.713E4,1.7505E4,2.7855E4,7.064E3,1.0169E4,6.654E3,1.307E3,1.5226E4,5.6991E4,1.369E3,1.365E3,5.381E3,3.863E3,8.449E3,2.207E3,2.25E4,7.708E3,2.7474E4,1.4034E4,3.4498E4,1.2781E4,2.1065E4,1.6315E4,2.2946E4,1.8138E4,2.4198E4,2.2932E4,1.0192E4,7.313E3,1.6884E4,1.0971E4,3.654E3,3.41E3,4.857E3,5.312E3,3.173E3,3.481E3,1.181E3,1.26E2,1.3201E4,2.025E3,8.8E1,1.281E3,6.59E2,7.06E2,7.85E2,4.596E3,2.421E3,1.442E3,4.179E3,4.27E3,7.19E2,1.488E3,1.0915E4,1.1585E4,3.846E3,3.862E3,1.9119E4,8.355E3,6.248E3,7.786E3,2.1344E4,1.3154E4,5.981E3,6.8E3,1.2037E4,9.028E3,9.481E3,6.834E3,1.3867E4,9.079E3,1.0362E4,7.776E3,1.0227E4,1.3971E4,9.826E3,1.3106E4,5.772E3,4.42E3,5.027E3,2.286E3,4.61E3,1.2274E4,3.317E3,7.654E3,3.546E3,1.08E2,3.264E3,1.46E2,1.635E3,3.222E3,1.522E3,3.79E3,2.831E3,3.42E2,2.19E3,1.291E3,5.35E2,6.46E2,7.1E1,5.5E1],"tree_param":{"num_deleted":"0","num_feature":"7","num_nodes":"125","size_leaf_vector":"1"}},{"base_weights":[1.717513E0,-1.0941871E3,1.5545397E3,-2.1180425E3,-4.5811923E2,1.01363184E3,3.769717E3,-2.2474102E3,-1.5494519E3,-8.713242E2,-1.6819403E2,6.2922235E2,1.611212E3,3.0111965E3,5.696621E3,-2.2568147E3,-1.9973005E3,-1.7298269E3,-1.4370371E3,-1.0868905E3,-7.199788E2,-3.44914E2,1.9111883E1,4.1734106E2,8.5764233E2,1.3381843E3,1.9418948E3,2.6486753E3,3.4637239E3,5.0965273E3,7.210466E3,-2.2501396E2,-2.433436E3,-2.0692448E2,-1.9245293E2,-1.8383856E3,-1.6592914E3,-1.5086267E3,-1.3662697E3,-1.2036288E3,-1.000845E3,-8.10256E2,-6.217241E2,-4.3295764E2,-2.5492993E2,-6.8437614E1,1.2117284E2,3.0673523E2,5.29427E2,7.735822E2,1.00356726E3,1.260737E3,1.4754373E3,1.7355831E3,2.072735E3,2.5666616E3,2.8417793E3,3.2740664E3,3.7757883E3,4.7027427E3,5.6902207E3,6.460372E3,7.9501333E3,-2.6378537E2,-2.215406E2,-1.8865273E2,-1.7902002E2,-1.7051378E2,-1.636365E2,-1.5495888E2,-1.466451E2,-1.4014189E2,-1.3333873E2,-1.242735E2,-1.1458877E2,-1.0448513E2,-9.650446E1,-8.6838394E1,-7.685293E1,-6.0068733E1,-7.092413E1,-4.932115E1,-4.0060013E1,-2.9440536E1,-2.099048E1,-1.0363415E1,-1.864789E0,5.939793E0,1.5329309E1,2.8531345E1,3.5663933E1,4.9163372E1,6.148409E1,7.0531975E1,8.450297E1,9.628355E1,1.0716729E2,1.1925468E2,1.3274799E2,1.3900346E2,1.5289175E2,1.6873705E2,1.9307002E2,2.0188124E2,2.3124089E2,2.569393E2,6.995455E1,2.8475107E2,-3.3681652E1,3.2805545E2,-2.0795481E0,3.786945E2,5.5123554E1,4.7203024E2,1.2668599E2,5.7113763E2,3.4802972E2,6.4909515E2,4.3472348E2,7.8556287E2,1.1564569E3],"categories":[],"categories_nodes":[],"categories_segments":[],"categories_sizes":[],"default_left":[0,0,0,0,0,0,0,0,0,0,0,0,0,0,0,0,0,0,0,0,0,0,0,0,0,0,0,0,0,0,0,0,0,0,0,0,0,0,0,0,0,0,0,0,0,0,0,0,0,0,0,0,0,0,0,0,0,0,0,0,0,0,0,0,0,0,0,0,0,0,0,0,0,0,0,0,0,0,0,0,0,0,0,0,0,0,0,0,0,0,0,0,0,0,0,0,0,0,0,0,0,0,0,0,0,0,0,0,0,0,0,0,0,0,0,0,0,0,0,0,0],"id":9,"left_children":[1,3,5,7,9,11,13,15,17,19,21,23,25,27,29,31,33,35,37,39,41,43,45,47,49,51,53,55,57,59,61,-1,63,-1,-1,65,67,69,71,73,75,77,79,81,83,85,87,89,91,93,95,97,99,101,103,105,107,109,111,113,115,117,119,-1,-1,-1,-1,-1,-1,-1,-1,-1,-1,-1,-1,-1,-1,-1,-1,-1,-1,-1,-1,-1,-1,-1,-1,-1,-1,-1,-1,-1,-1,-1,-1,-1,-1,-1,-1,-1,-1,-1,-1,-1,-1,-1,-1,-1,-1,-1,-1,-1,-1,-1,-1,-1,-1,-1,-1,-1,-1],"loss_changes":[6.9804216E11,1.5660699E11,2.0335106E11,6.774653E9,1.776945E10,3.1334236E10,4.8665657E10,1.7206477E8,3.4390426E8,1.9945923E9,2.8853612E9,4.0172524E9,4.8184525E9,3.911975E9,8.5089976E9,7.982285E7,1.0304512E7,4.713267E7,5.128397E7,2.5218458E8,3.1825306E8,3.552302E8,3.7813594E8,5.3375488E8,4.8921805E8,3.0908826E8,6.482248E8,2.029568E8,6.166528E8,1.5489761E9,1.4289142E9,0E0,1.1101594E8,0E0,0E0,2.589696E6,1.396736E6,6.754304E6,4.26496E6,2.2733824E7,2.1879808E7,4.475085E7,3.1262208E7,4.399949E7,3.936768E7,3.991657E7,3.8762656E7,2.307392E7,6.874317E7,1.2304077E8,3.9460864E7,8.35584E7,4.604109E7,8.495309E7,1.8623283E8,4.5768704E7,7.288013E7,1.4155776E8,1.4220902E8,2.3884595E8,1.0554573E8,5.772083E7,3.6653466E8,0E0,0E0,0E0,0E0,0E0,0E0,0E0,0E0,0E0,0E0,0E0,0E0,0E0,0E0,0E0,0E0,0E0,0E0,0E0,0E0,0E0,0E0,0E0,0E0,0E0,0E0,0E0,0E0,0E0,0E0,0E0,0E0,0E0,0E0,0E0,0E0,0E0,0E0,0E0,0E0,0E0,0E0,0E0,0E0,0E0,0E0,0E0,0E0,0E0,0E0,0E0,0E0,0E0,0E0,0E0,0E0,0E0,0E0],"parents":[2147483647,0,0,1,1,2,2,3,3,4,4,5,5,6,6,7,7,8,8,9,9,10,10,11,11,12,12,13,13,14,14,15,15,16,16,17,17,18,18,19,19,20,20,21,21,22,22,23,23,24,24,25,25,26,26,27,27,28,28,29,29,30,30,32,32,35,35,36,36,37,37,38,38,39,39,40,40,41,41,42,42,43,43,44,44,45,45,46,46,47,47,48,48,49,49,50,50,51,51,52,52,53,53,54,54,55,55,56,56,57,57,58,58,59,59,60,60,61,61,62,62],"right_children":[2,4,6,8,10,12,14,16,18,20,22,24,26,28,30,32,34,36,38,40,42,44,46,48,50,52,54,56,58,60,62,-1,64,-1,-1,66,68,70,72,74,76,78,80,82,84,86,88,90,92,94,96,98,100,102,104,106,108,110,112,114,116,118,120,-1,-1,-1,-1,-1,-1,-1,-1,-1,-1,-1,-1,-1,-1,-1,-1,-1,-1,-1,-1,-1,-1,-1,-1,-1,-1,-1,-1,-1,-1,-1,-1,-1,-1,-1,-1,-1,-1,-1,-1,-1,-1,-1,-1,-1,-1,-1,-1,-1,-1,-1,-1,-1,-1,-1,-1,-1,-1],"split_conditions":[6.78E2,3.73E2,1.186E3,2.75E2,5.17E2,8.88E2,1.735E3,2.39E2,3.24E2,4.43E2,5.98E2,7.73E2,1.013E3,1.374E3,2.608E3,1E0,2.59E2,2.98E2,3.51E2,4.06E2,4.84E2,5.58E2,6.4E2,7.23E2,8.42E2,9.62E2,1.068E3,1.305E3,1.552E3,2.073E3,3.137E3,-2.2501396E2,2.07E2,-2.0692448E2,-1.9245293E2,2.87E2,3.07E2,3.38E2,3.62E2,3.94E2,4.24E2,4.61E2,1E0,5.31E2,5.79E2,6.22E2,6.52E2,7.09E2,7.57E2,8.07E2,8.71E2,9.23E2,9.8E2,1E0,1.161E3,1E0,1E0,1E0,1E0,1E0,1E0,1E0,1E0,-2.6378537E2,-2.215406E2,-1.8865273E2,-1.7902002E2,-1.7051378E2,-1.636365E2,-1.5495888E2,-1.466451E2,-1.4014189E2,-1.3333873E2,-1.242735E2,-1.1458877E2,-1.0448513E2,-9.650446E1,-8.6838394E1,-7.685293E1,-6.0068733E1,-7.092413E1,-4.932115E1,-4.0060013E1,-2.9440536E1,-2.099048E1,-1.0363415E1,-1.864789E0,5.939793E0,1.5329309E1,2.8531345E1,3.5663933E1,4.9163372E1,6.148409E1,7.0531975E1,8.450297E1,9.628355E1,1.0716729E2,1.1925468E2,1.3274799E2,1.3900346E2,1.5289175E2,1.6873705E2,1.9307002E2,2.0188124E2,2.3124089E2,2.569393E2,6.995455E1,2.8475107E2,-3.3681652E1,3.2805545E2,-2.0795481E0,3.786945E2,5.5123554E1,4.7203024E2,1.2668599E2,5.7113763E2,3.4802972E2,6.4909515E2,4.3472348E2,7.8556287E2,1.1564569E3],"split_indices":[2,2,2,2,2,2,2,2,2,2,2,2,2,2,2,3,2,2,2,2,2,2,2,2,2,2,2,2,2,2,2,0,2,0,0,2,2,2,2,2,2,2,6,2,2,2,2,2,2,2,2,2,2,6,2,5,5,5,5,5,5,5,5,0,0,0,0,0,0,0,0,0,0,0,0,0,0,0,0,0,0,0,0,0,0,0,0,0,0,0,0,0,0,0,0,0,0,0,0,0,0,0,0,0,0,0,0,0,0,0,0,0,0,0,0,0,0,0,0,0,0],"split_type":[0,0,0,0,0,0,0,0,0,0,0,0,0,0,0,0,0,0,0,0,0,0,0,0,0,0,0,0,0,0,0,0,0,0,0,0,0,0,0,0,0,0,0,0,0,0,0,0,0,0,0,0,0,0,0,0,0,0,0,0,0,0,0,0,0,0,0,0,0,0,0,0,0,0,0,0,0,0,0,0,0,0,0,0,0,0,0,0,0,0,0,0,0,0,0,0,0,0,0,0,0,0,0,0,0,0,0,0,0,0,0,0,0,0,0,0,0,0,0,0,0],"sum_hessian":[4.1019E5,2.40475E5,1.69715E5,9.2147E4,1.48328E5,1.36408E5,3.3307E4,7.5065E4,1.7082E4,6.116E4,8.7168E4,8.3011E4,5.3397E4,2.3901E4,9.406E3,7.2337E4,2.728E3,6.553E3,1.0529E4,2.5225E4,3.5935E4,4.4851E4,4.2317E4,4.3066E4,3.9945E4,2.9251E4,2.4146E4,1.3274E4,1.0627E4,6.739E3,2.667E3,6.9716E4,2.621E3,1.358E3,1.37E3,2.571E3,3.982E3,5.224E3,5.305E3,1.0698E4,1.4527E4,1.8724E4,1.7211E4,2.2668E4,2.2183E4,2.2778E4,1.9539E4,2.1678E4,2.1388E4,2.5349E4,1.4596E4,1.8706E4,1.0545E4,9.376E3,1.477E4,9.327E3,3.947E3,6.617E3,4.01E3,4.057E3,2.682E3,1.329E3,1.338E3,1.347E3,1.274E3,1.267E3,1.304E3,1.303E3,2.679E3,2.632E3,2.592E3,2.544E3,2.761E3,6.366E3,4.332E3,6.504E3,8.023E3,7.816E3,1.0908E4,1.3882E4,3.329E3,7.915E3,1.4753E4,1.1817E4,1.0366E4,1.3344E4,9.434E3,6.685E3,1.2854E4,1.5172E4,6.506E3,1.4832E4,6.556E3,1.2969E4,1.238E4,9.143E3,5.453E3,9.262E3,9.444E3,4.071E3,6.474E3,7.526E3,1.85E3,1.2065E4,2.705E3,9.313E3,1.4E1,3.94E3,7E0,6.604E3,1.3E1,3.996E3,1.4E1,4.036E3,2.1E1,2.655E3,2.7E1,1.308E3,2.1E1,1.307E3,3.1E1],"tree_param":{"num_deleted":"0","num_feature":"7","num_nodes":"121","size_leaf_vector":"1"}},{"base_weights":[1.6711488E-1,-9.5630505E2,1.4324221E3,-1.872991E3,-3.702189E2,9.60248E2,3.4794138E3,-2.0171216E3,-1.3229033E3,-7.3375903E2,-1.0971942E2,5.894729E2,1.4745621E3,2.7536062E3,5.133341E3,-2.0308882E3,-1.7662163E3,-1.4777314E3,-1.218851E3,-9.1417194E2,-5.91951E2,-2.7004858E2,1.0253611E2,3.0499594E2,8.498842E2,1.0514646E3,1.7579388E3,2.180663E3,3.124916E3,4.5732036E3,6.5539097E3,-2.059416E3,-2.0232777E2,-1.6887654E3,-1.8284677E3,-1.4030818E3,-1.586857E3,-1.1719464E3,-1.3237737E3,-9.701864E2,-7.496114E2,-6.8768835E2,-3.982229E2,-4.0605353E2,9.320231E1,-9.248184E1,2.425167E2,7.894111E1,5.9109155E2,6.545614E2,1.073278E3,8.106004E2,1.3485975E3,1.5260775E3,2.107988E3,2.2464434E3,2.5272673E2,2.6674177E3,3.512993E3,3.811696E3,5.204999E3,5.834554E3,7.2667104E3,-2.206407E2,-2.0204697E2,-1.9576308E2,-1.6368097E2,-1.9096284E2,-1.776558E2,-1.59333E2,-1.3717049E2,-1.5784906E2,-2.1594559E2,-1.4131462E2,-1.1325558E2,-1.3129306E2,-2.0838557E2,-1.0756472E2,-9.0125595E1,-8.852203E1,-6.849894E1,-7.813119E1,-4.7667755E1,-3.572607E1,-5.663677E1,-5.390395E1,-2.5192844E1,-8.006847E0,2.9363422E1,-1.9356574E0,-1.870258E1,3.417892E1,1.0482393E1,-5.8609524E0,2.3619059E1,4.5548504E1,8.3608665E1,8.110411E1,5.5192524E1,1.3573564E2,9.896966E1,5.706001E1,1.1137837E2,1.3781471E2,-1.0462644E2,2.0037454E2,1.3648521E2,2.3499707E2,1.8705035E2,2.0317783E2,2.6848077E2,-1.9471107E1,7.383476E1,3.0955258E2,2.449553E2,4.0533627E2,3.277457E2,3.9748785E2,2.0315868E2,6.0275793E2,4.85572E2,5.2095166E2,6.662057E2,7.054995E2,9.2851953E2],"categories":[],"categories_nodes":[],"categories_segments":[],"categories_sizes":[],"default_left":[0,0,0,0,0,0,0,0,0,0,0,0,0,0,0,0,0,0,0,0,0,0,0,0,0,0,0,0,0,0,0,0,0,0,0,0,0,0,0,0,0,0,0,0,0,0,0,0,0,0,0,0,0,0,0,0,0,0,0,0,0,0,0,0,0,0,0,0,0,0,0,0,0,0,0,0,0,0,0,0,0,0,0,0,0,0,0,0,0,0,0,0,0,0,0,0,0,0,0,0,0,0,0,0,0,0,0,0,0,0,0,0,0,0,0,0,0,0,0,0,0,0,0,0,0],"id":10,"left_children":[1,3,5,7,9,11,13,15,17,19,21,23,25,27,29,31,33,35,37,39,41,43,45,47,49,51,53,55,57,59,61,63,-1,65,67,69,71,73,75,77,79,81,83,85,87,89,91,93,95,97,99,101,103,105,107,109,111,113,115,117,119,121,123,-1,-1,-1,-1,-1,-1,-1,-1,-1,-1,-1,-1,-1,-1,-1,-1,-1,-1,-1,-1,-1,-1,-1,-1,-1,-1,-1,-1,-1,-1,-1,-1,-1,-1,-1,-1,-1,-1,-1,-1,-1,-1,-1,-1,-1,-1,-1,-1,-1,-1,-1,-1,-1,-1,-1,-1,-1,-1,-1,-1,-1,-1],"loss_changes":[5.622269E11,1.32206395E11,1.588305E11,7.6063703E9,1.4215449E10,2.5463185E10,3.696037E10,2.590638E8,3.1924634E8,1.6025764E9,2.9759488E9,5.748132E9,6.70489E9,4.5477233E9,7.4441687E9,1.1501568E7,1.6018432E7,6.2982144E7,5.713101E7,2.5345024E8,6.5048576E8,2.461242E9,1.02730074E9,2.3984274E9,1.7669509E9,1.604907E9,2.7156644E9,1.0675118E9,2.2965862E9,3.2228966E9,1.3184614E9,8.21289E7,0E0,2.1646848E7,5.813248E6,2.6241024E7,1.2132352E7,7.677338E7,2.7559936E7,1.4855782E8,6.079821E7,4.6350848E8,7.974182E7,7.427999E8,4.7136544E8,1.0871198E8,2.9941325E8,4.4813936E8,5.434455E8,3.4671616E8,4.4731597E8,9.0134835E8,7.122944E8,1.5494431E9,7.625032E8,7.609098E8,6.076631E7,5.487698E8,8.807137E8,8.8079974E8,1.0283172E9,6.511288E8,5.0243174E8,0E0,0E0,0E0,0E0,0E0,0E0,0E0,0E0,0E0,0E0,0E0,0E0,0E0,0E0,0E0,0E0,0E0,0E0,0E0,0E0,0E0,0E0,0E0,0E0,0E0,0E0,0E0,0E0,0E0,0E0,0E0,0E0,0E0,0E0,0E0,0E0,0E0,0E0,0E0,0E0,0E0,0E0,0E0,0E0,0E0,0E0,0E0,0E0,0E0,0E0,0E0,0E0,0E0,0E0,0E0,0E0,0E0,0E0,0E0,0E0,0E0,0E0],"parents":[2147483647,0,0,1,1,2,2,3,3,4,4,5,5,6,6,7,7,8,8,9,9,10,10,11,11,12,12,13,13,14,14,15,15,16,16,17,17,18,18,19,19,20,20,21,21,22,22,23,23,24,24,25,25,26,26,27,27,28,28,29,29,30,30,31,31,33,33,34,34,35,35,36,36,37,37,38,38,39,39,40,40,41,41,42,42,43,43,44,44,45,45,46,46,47,47,48,48,49,49,50,50,51,51,52,52,53,53,54,54,55,55,56,56,57,57,58,58,59,59,60,60,61,61,62,62],"right_children":[2,4,6,8,10,12,14,16,18,20,22,24,26,28,30,32,34,36,38,40,42,44,46,48,50,52,54,56,58,60,62,64,-1,66,68,70,72,74,76,78,80,82,84,86,88,90,92,94,96,98,100,102,104,106,108,110,112,114,116,118,120,122,124,-1,-1,-1,-1,-1,-1,-1,-1,-1,-1,-1,-1,-1,-1,-1,-1,-1,-1,-1,-1,-1,-1,-1,-1,-1,-1,-1,-1,-1,-1,-1,-1,-1,-1,-1,-1,-1,-1,-1,-1,-1,-1,-1,-1,-1,-1,-1,-1,-1,-1,-1,-1,-1,-1,-1,-1,-1,-1,-1,-1,-1,-1],"split_conditions":[6.89E2,3.86E2,1.214E3,2.87E2,5.27E2,8.88E2,1.735E3,2.39E2,3.38E2,4.58E2,1E0,1E0,1E0,1E0,2.608E3,7E0,6E0,6E0,6E0,1E0,1E0,6E0,5.98E2,5E0,7.86E2,5E0,1.043E3,7E0,1.348E3,1E0,3.137E3,1E0,-2.0232777E2,2E0,2.59E2,2E0,7E0,2E0,7E0,4.17E2,4.14E2,6E0,5E0,6.08E2,6.05E2,4E0,4E0,7.8E2,8.01E2,3E0,2E0,1.013E3,7E0,2E0,3E0,1.468E3,1.468E3,2E0,2E0,7E0,2E0,1E0,7E0,-2.206407E2,-2.0204697E2,-1.9576308E2,-1.6368097E2,-1.9096284E2,-1.776558E2,-1.59333E2,-1.3717049E2,-1.5784906E2,-2.1594559E2,-1.4131462E2,-1.1325558E2,-1.3129306E2,-2.0838557E2,-1.0756472E2,-9.0125595E1,-8.852203E1,-6.849894E1,-7.813119E1,-4.7667755E1,-3.572607E1,-5.663677E1,-5.390395E1,-2.5192844E1,-8.006847E0,2.9363422E1,-1.9356574E0,-1.870258E1,3.417892E1,1.0482393E1,-5.8609524E0,2.3619059E1,4.5548504E1,8.3608665E1,8.110411E1,5.5192524E1,1.3573564E2,9.896966E1,5.706001E1,1.1137837E2,1.3781471E2,-1.0462644E2,2.0037454E2,1.3648521E2,2.3499707E2,1.8705035E2,2.0317783E2,2.6848077E2,-1.9471107E1,7.383476E1,3.0955258E2,2.449553E2,4.0533627E2,3.277457E2,3.9748785E2,2.0315868E2,6.0275793E2,4.85572E2,5.2095166E2,6.662057E2,7.054995E2,9.2851953E2],"split_indices":[2,2,2,2,2,2,2,2,2,2,4,4,4,4,2,1,1,1,1,4,4,1,2,1,2,1,2,1,2,4,2,5,0,1,2,1,1,1,1,2,2,1,1,2,2,1,1,2,2,1,1,2,1,1,1,2,2,1,1,1,1,4,1,0,0,0,0,0,0,0,0,0,0,0,0,0,0,0,0,0,0,0,0,0,0,0,0,0,0,0,0,0,0,0,0,0,0,0,0,0,0,0,0,0,0,0,0,0,0,0,0,0,0,0,0,0,0,0,0,0,0,0,0,0,0],"split_type":[0,0,0,0,0,0,0,0,0,0,0,0,0,0,0,0,0,0,0,0,0,0,0,0,0,0,0,0,0,0,0,0,0,0,0,0,0,0,0,0,0,0,0,0,0,0,0,0,0,0,0,0,0,0,0,0,0,0,0,0,0,0,0,0,0,0,0,0,0,0,0,0,0,0,0,0,0,0,0,0,0,0,0,0,0,0,0,0,0,0,0,0,0,0,0,0,0,0,0,0,0,0,0,0,0,0,0,0,0,0,0,0,0,0,0,0,0,0,0,0,0,0,0,0,0],"sum_hessian":[4.10409E5,2.46077E5,1.64332E5,9.597E4,1.50107E5,1.33532E5,3.08E4,7.6043E4,1.9927E4,6.266E4,8.7447E4,7.7595E4,5.5937E4,2.1408E4,9.392E3,7.2081E4,3.962E3,8.004E3,1.1923E4,2.7574E4,3.5086E4,4.9817E4,3.763E4,3.7085E4,4.051E4,2.2439E4,3.3498E4,8.421E3,1.2987E4,6.739E3,2.653E3,1.5123E4,5.6958E4,1.778E3,2.184E3,4.761E3,3.243E3,8.248E3,3.675E3,2.0568E4,7.006E3,2.348E4,1.1606E4,3.6246E4,1.3571E4,1.5724E4,2.1906E4,2.0717E4,1.6368E4,2.1615E4,1.8895E4,1.2395E4,1.0044E4,2.0154E4,1.3344E4,8.143E3,2.78E2,5.964E3,7.023E3,3.059E3,3.68E3,1.325E3,1.328E3,3.156E3,1.1967E4,2.82E2,1.496E3,8.38E2,1.346E3,6.67E2,4.094E3,3.2E3,4.3E1,1.153E3,7.095E3,3.626E3,4.9E1,8.124E3,1.2444E4,2.257E3,4.749E3,1.6262E4,7.218E3,9.335E3,2.271E3,1.9456E4,1.679E4,7.279E3,6.292E3,8.867E3,6.857E3,1.2728E4,9.178E3,1.1051E4,9.666E3,1.0538E4,5.83E3,8.559E3,1.3056E4,4.292E3,1.4603E4,6.92E3,5.475E3,9.922E3,1.22E2,5.083E3,1.5071E4,6.605E3,6.739E3,5.47E3,2.673E3,1.45E2,1.33E2,2.007E3,3.957E3,2.127E3,4.896E3,2.801E3,2.58E2,1.092E3,2.588E3,7.59E2,5.66E2,1.206E3,1.22E2],"tree_param":{"num_deleted":"0","num_feature":"7","num_nodes":"125","size_leaf_vector":"1"}},{"base_weights":[-8.855505E-1,-7.924947E2,1.4053923E3,-1.6863162E3,-2.7488898E2,1.0250464E3,3.5073945E3,-1.8157003E3,-1.1888862E3,-5.9311E2,1.9354803E1,7.19889E2,1.6493287E3,2.9736074E3,5.2471924E3,-1.8279493E3,-1.5895239E3,-1.3321913E3,-1.0938534E3,-7.541106E2,-4.097505E2,-1.442934E2,2.1670412E2,4.2327084E2,9.692873E2,1.2449359E3,1.8999764E3,2.3678525E3,3.4126873E3,4.83585E3,6.487211E3,-1.8539714E3,-1.8209215E2,-1.6847267E3,-1.5406757E3,-1.2621652E3,-1.435595E3,-1.1303921E3,-9.568488E2,-8.1721893E2,-5.870142E2,-5.0851334E2,-2.3522617E2,-2.729128E2,2.0641983E2,7.120091E1,3.8676416E2,2.7075226E2,8.22579E2,7.6982294E2,1.2008485E3,1.0738536E3,1.6295874E3,1.6961838E3,2.2548713E3,2.0389666E3,2.8654163E3,3.0909585E3,4.1824644E3,4.1426665E3,5.521094E3,6.377816E3,1.0563658E3,-1.9875629E2,-1.8186407E2,-1.9688295E2,-1.665346E2,-1.7416211E2,-1.5231938E2,-1.4515407E2,-1.2306725E2,-1.4280621E2,-1.9419122E2,-1.1958213E2,-1.0772524E2,-1.0449728E2,-8.988186E1,-9.1735306E1,-7.3547325E1,-7.239443E1,-4.887405E1,-6.093056E1,-2.7553207E1,-1.9894222E1,-3.7411144E1,-3.69483E1,-1.1181228E1,6.808374E0,3.9272545E1,1.5614787E1,-4.325679E0,4.8147556E1,2.5114227E1,1.3972081E1,4.771039E1,8.414654E1,-1.4199252E2,6.569327E1,8.7205894E1,1.6045135E2,1.07620995E2,9.375034E1,1.4422694E2,1.6766048E2,-5.9263348E1,2.0446375E2,1.5618492E2,2.5795523E2,2.1031609E2,2.0986551E2,2.6440891E1,2.970072E2,1.0075234E2,3.4371298E2,2.7296432E2,4.77319E2,3.9344443E2,4.3533136E2,2.742889E2,6.922962E2,5.0410733E2,6.2004175E2,7.994502E2],"categories":[],"categories_nodes":[],"categories_segments":[],"categories_sizes":[],"default_left":[0,0,0,0,0,0,0,0,0,0,0,0,0,0,0,0,0,0,0,0,0,0,0,0,0,0,0,0,0,0,0,0,0,0,0,0,0,0,0,0,0,0,0,0,0,0,0,0,0,0,0,0,0,0,0,0,0,0,0,0,0,0,0,0,0,0,0,0,0,0,0,0,0,0,0,0,0,0,0,0,0,0,0,0,0,0,0,0,0,0,0,0,0,0,0,0,0,0,0,0,0,0,0,0,0,0,0,0,0,0,0,0,0,0,0,0,0,0,0,0,0,0,0],"id":11,"left_children":[1,3,5,7,9,11,13,15,17,19,21,23,25,27,29,31,33,35,37,39,41,43,45,47,49,51,53,55,57,59,61,63,-1,65,67,69,71,73,75,77,79,81,83,85,87,89,91,93,95,97,99,101,103,105,107,109,111,113,115,117,119,121,-1,-1,-1,-1,-1,-1,-1,-1,-1,-1,-1,-1,-1,-1,-1,-1,-1,-1,-1,-1,-1,-1,-1,-1,-1,-1,-1,-1,-1,-1,-1,-1,-1,-1,-1,-1,-1,-1,-1,-1,-1,-1,-1,-1,-1,-1,-1,-1,-1,-1,-1,-1,-1,-1,-1,-1,-1,-1,-1,-1,-1],"loss_changes":[4.5679523E11,1.2146565E11,1.18152724E11,6.194512E9,1.5568161E10,2.3839875E10,2.1013463E10,2.0878131E8,2.6924237E8,2.3577702E9,2.7900058E9,6.218019E9,4.1623142E9,4.60125E9,2.6796524E9,9.863168E6,1.5694848E7,5.554381E7,5.877248E7,4.4801843E8,6.436296E8,2.1303969E9,9.69008E8,2.3382272E9,2.1082153E9,1.03306854E9,1.8306335E9,1.1864556E9,2.4748114E9,1.8747556E9,5.217157E8,6.886195E7,0E0,4.005632E6,6.519296E6,2.6428928E7,9.397248E6,3.15136E7,1.1968E7,2.5200435E8,1.565906E8,5.598945E8,6.795117E7,5.37548E8,3.2659187E8,2.052169E8,2.3182003E8,7.512264E8,4.5064294E8,2.8259635E8,1.06136986E9,5.455411E8,5.0658406E8,7.511859E8,4.501545E8,4.644393E8,5.6029594E8,8.771625E8,4.146012E8,5.7482854E8,1.3149921E9,3.201147E8,0E0,0E0,0E0,0E0,0E0,0E0,0E0,0E0,0E0,0E0,0E0,0E0,0E0,0E0,0E0,0E0,0E0,0E0,0E0,0E0,0E0,0E0,0E0,0E0,0E0,0E0,0E0,0E0,0E0,0E0,0E0,0E0,0E0,0E0,0E0,0E0,0E0,0E0,0E0,0E0,0E0,0E0,0E0,0E0,0E0,0E0,0E0,0E0,0E0,0E0,0E0,0E0,0E0,0E0,0E0,0E0,0E0,0E0,0E0,0E0,0E0],"parents":[2147483647,0,0,1,1,2,2,3,3,4,4,5,5,6,6,7,7,8,8,9,9,10,10,11,11,12,12,13,13,14,14,15,15,16,16,17,17,18,18,19,19,20,20,21,21,22,22,23,23,24,24,25,25,26,26,27,27,28,28,29,29,30,30,31,31,33,33,34,34,35,35,36,36,37,37,38,38,39,39,40,40,41,41,42,42,43,43,44,44,45,45,46,46,47,47,48,48,49,49,50,50,51,51,52,52,53,53,54,54,55,55,56,56,57,57,58,58,59,59,60,60,61,61],"right_children":[2,4,6,8,10,12,14,16,18,20,22,24,26,28,30,32,34,36,38,40,42,44,46,48,50,52,54,56,58,60,62,64,-1,66,68,70,72,74,76,78,80,82,84,86,88,90,92,94,96,98,100,102,104,106,108,110,112,114,116,118,120,122,-1,-1,-1,-1,-1,-1,-1,-1,-1,-1,-1,-1,-1,-1,-1,-1,-1,-1,-1,-1,-1,-1,-1,-1,-1,-1,-1,-1,-1,-1,-1,-1,-1,-1,-1,-1,-1,-1,-1,-1,-1,-1,-1,-1,-1,-1,-1,-1,-1,-1,-1,-1,-1,-1,-1,-1,-1,-1,-1,-1,-1],"split_conditions":[7.23E2,3.86E2,1.326E3,2.87E2,5.58E2,9.8E2,2.073E3,2.39E2,3.38E2,4.89E2,1E0,1E0,1E0,1E0,3.137E3,7E0,2.59E2,6E0,1E0,1E0,1E0,6E0,6.47E2,6E0,8.42E2,1.161E3,1.148E3,1.607E3,1.664E3,1E0,1E0,1E0,-1.8209215E2,2E0,2E0,2E0,7E0,3.62E2,3.62E2,4.37E2,4.4E2,6E0,5E0,6.52E2,6.45E2,4E0,4E0,8.5E2,7E0,7.76E2,2E0,6E0,7E0,2E0,2E0,7E0,7E0,3E0,2E0,7E0,2E0,7E0,1.0563658E3,-1.9875629E2,-1.8186407E2,-1.9688295E2,-1.665346E2,-1.7416211E2,-1.5231938E2,-1.4515407E2,-1.2306725E2,-1.4280621E2,-1.9419122E2,-1.1958213E2,-1.0772524E2,-1.0449728E2,-8.988186E1,-9.1735306E1,-7.3547325E1,-7.239443E1,-4.887405E1,-6.093056E1,-2.7553207E1,-1.9894222E1,-3.7411144E1,-3.69483E1,-1.1181228E1,6.808374E0,3.9272545E1,1.5614787E1,-4.325679E0,4.8147556E1,2.5114227E1,1.3972081E1,4.771039E1,8.414654E1,-1.4199252E2,6.569327E1,8.7205894E1,1.6045135E2,1.07620995E2,9.375034E1,1.4422694E2,1.6766048E2,-5.9263348E1,2.0446375E2,1.5618492E2,2.5795523E2,2.1031609E2,2.0986551E2,2.6440891E1,2.970072E2,1.0075234E2,3.4371298E2,2.7296432E2,4.77319E2,3.9344443E2,4.3533136E2,2.742889E2,6.922962E2,5.0410733E2,6.2004175E2,7.994502E2],"split_indices":[2,2,2,2,2,2,2,2,2,2,4,4,4,4,2,1,2,1,4,4,4,1,2,1,2,2,2,2,2,4,5,5,0,1,1,1,1,2,2,2,2,1,1,2,2,1,1,2,1,2,1,1,1,1,1,1,1,1,1,1,1,1,0,0,0,0,0,0,0,0,0,0,0,0,0,0,0,0,0,0,0,0,0,0,0,0,0,0,0,0,0,0,0,0,0,0,0,0,0,0,0,0,0,0,0,0,0,0,0,0,0,0,0,0,0,0,0,0,0,0,0,0,0],"split_type":[0,0,0,0,0,0,0,0,0,0,0,0,0,0,0,0,0,0,0,0,0,0,0,0,0,0,0,0,0,0,0,0,0,0,0,0,0,0,0,0,0,0,0,0,0,0,0,0,0,0,0,0,0,0,0,0,0,0,0,0,0,0,0,0,0,0,0,0,0,0,0,0,0,0,0,0,0,0,0,0,0,0,0,0,0,0,0,0,0,0,0,0,0,0,0,0,0,0,0,0,0,0,0,0,0,0,0,0,0,0,0,0,0,0,0,0,0,0,0,0,0,0,0],"sum_hessian":[4.10334E5,2.62545E5,1.47789E5,9.6281E4,1.66264E5,1.25146E5,2.2643E4,7.6405E4,1.9876E4,7.9877E4,8.6387E4,8.4059E4,4.1087E4,1.7329E4,5.314E3,7.2473E4,3.932E3,7.92E3,1.1956E4,4.253E4,3.7347E4,4.7226E4,3.9161E4,3.8396E4,4.5663E4,1.5724E4,2.5363E4,7.285E3,1.0044E4,3.994E3,1.32E3,1.5355E4,5.7118E4,1.322E3,2.61E3,4.73E3,3.19E3,9.433E3,2.523E3,3.0868E4,1.1662E4,2.3849E4,1.3498E4,3.4554E4,1.2672E4,2.1105E4,1.8056E4,2.7785E4,1.0611E4,2.4534E4,2.1129E4,1.0886E4,4.838E3,1.6115E4,9.248E3,4.389E3,2.896E3,7.087E3,2.957E3,1.989E3,2.005E3,1.288E3,3.2E1,3.2E3,1.2155E4,7.8E1,1.244E3,2.01E2,2.409E3,6.68E2,4.062E3,3.147E3,4.3E1,4.218E3,5.215E3,9.95E2,1.528E3,1.3869E4,1.6999E4,4.87E3,6.792E3,1.6646E4,7.203E3,1.0704E4,2.794E3,2.1603E4,1.2951E4,7.273E3,5.399E3,1.2114E4,8.991E3,1.063E4,7.426E3,1.6995E4,1.079E4,1.0523E4,8.8E1,1.1663E4,1.2871E4,4.982E3,1.6147E4,7.948E3,2.938E3,4.738E3,1E2,4.48E3,1.1635E4,2.94E3,6.308E3,4.246E3,1.43E2,2.741E3,1.55E2,3.615E3,3.472E3,8.69E2,2.088E3,1.727E3,2.62E2,5.08E2,1.497E3,1.165E3,1.23E2],"tree_param":{"num_deleted":"0","num_feature":"7","num_nodes":"123","size_leaf_vector":"1"}},{"base_weights":[-4.309439E-1,-7.98539E2,1.1322946E3,-1.543558E3,-3.357677E2,7.39095E2,2.7407246E3,-1.6385262E3,-1.1317549E3,-6.347947E2,-1.27168625E2,4.727065E2,1.190717E3,2.2475317E3,4.3120874E3,-1.6451484E3,-1.4608584E3,-1.2665295E3,-1.048111E3,-7.905941E2,-5.2551794E2,-2.5279851E2,4.4537495E1,2.405913E2,6.857318E2,8.558825E2,1.4153802E3,1.7903759E3,2.5447751E3,3.834323E3,5.246816E3,-1.6404111E3,-1.7696746E3,-1.504164E3,-1.4175612E2,-1.3430754E2,-1.2165698E3,-1.0814692E3,-9.0492053E2,-8.7591895E2,-7.283937E2,-5.9984607E2,-3.6514618E2,-3.606761E2,-1.1412569E2,-1.0441749E2,1.8243402E2,7.9677246E1,3.6980856E2,4.9070343E2,8.546203E2,6.693384E2,1.083153E3,1.2238508E3,1.6413038E3,1.5778793E3,2.2000752E3,2.1967266E3,3.0586345E3,3.1804487E3,4.392219E3,4.747988E3,5.744335E3,-1.6383366E2,-1.6701646E2,-1.965695E2,-1.5639247E2,-1.5142554E2,-1.3514708E2,-1.2315305E2,-1.1176754E2,-1.1340365E2,-1.0283221E2,-9.492439E1,-8.457342E1,-9.146392E1,-7.493682E1,-7.702639E1,-6.0506947E1,-6.692119E1,-5.51309E1,-4.627792E1,-3.1384245E1,-4.2251972E1,-2.9325903E1,-1.6494358E1,-4.813619E0,-1.6436012E1,-3.4363124E0,1.2486308E1,2.5545002E1,3.3878148E0,1.1810026E1,3.1136438E1,5.142124E1,3.995328E1,5.890165E1,7.3280876E1,9.322866E1,5.5469086E1,7.0913605E1,9.7187614E1,1.2318047E2,1.14895E2,1.3450572E2,1.5624057E2,1.8218762E2,1.503176E2,1.8434044E2,2.0600826E2,2.7129883E2,2.061743E2,2.3635823E2,2.851804E2,3.4189572E2,2.883187E2,3.457601E2,4.048369E2,4.7356387E2,4.31686E2,5.3342206E2,5.6373474E2,1.00835834E3],"categories":[],"categories_nodes":[],"categories_segments":[],"categories_sizes":[],"default_left":[0,0,0,0,0,0,0,0,0,0,0,0,0,0,0,0,0,0,0,0,0,0,0,0,0,0,0,0,0,0,0,0,0,0,0,0,0,0,0,0,0,0,0,0,0,0,0,0,0,0,0,0,0,0,0,0,0,0,0,0,0,0,0,0,0,0,0,0,0,0,0,0,0,0,0,0,0,0,0,0,0,0,0,0,0,0,0,0,0,0,0,0,0,0,0,0,0,0,0,0,0,0,0,0,0,0,0,0,0,0,0,0,0,0,0,0,0,0,0,0,0,0,0],"id":12,"left_children":[1,3,5,7,9,11,13,15,17,19,21,23,25,27,29,31,33,35,37,39,41,43,45,47,49,51,53,55,57,59,61,63,65,67,-1,-1,69,71,73,75,77,79,81,83,85,87,89,91,93,95,97,99,101,103,105,107,109,111,113,115,117,119,121,-1,-1,-1,-1,-1,-1,-1,-1,-1,-1,-1,-1,-1,-1,-1,-1,-1,-1,-1,-1,-1,-1,-1,-1,-1,-1,-1,-1,-1,-1,-1,-1,-1,-1,-1,-1,-1,-1,-1,-1,-1,-1,-1,-1,-1,-1,-1,-1,-1,-1,-1,-1,-1,-1,-1,-1,-1,-1,-1,-1],"loss_changes":[3.708126E11,8.296196E10,1.0722399E11,3.6038738E9,9.258626E9,1.6390169E10,2.580118E10,8.572109E7,1.9348275E8,1.0380411E9,1.8861732E9,4.2371953E9,3.8011126E9,3.440296E9,3.5324232E9,3.9714816E7,2.931712E6,2.3655424E7,4.998349E7,1.3280051E8,4.271534E8,7.5533286E8,7.588832E8,8.5272806E8,1.4714184E9,8.598712E8,1.3068534E9,8.664289E8,2.7403796E9,1.9077693E9,6.39828E8,1.540096E6,1.0315776E8,8.96E3,0E0,0E0,4.558848E6,2.299392E7,4.501504E6,5.123635E7,7.465421E7,8.210842E7,5.6741376E7,1.182848E8,7.408646E7,7.457709E7,8.061414E7,3.2141168E7,1.918062E8,1.8566298E8,2.2586163E8,5.048525E7,1.5014093E8,1.471058E8,1.9483034E8,1.2780749E8,2.3926374E8,2.0145766E8,4.52309E8,1.9015066E8,3.1618662E8,3.1766733E8,5.6571085E8,0E0,0E0,0E0,0E0,0E0,0E0,0E0,0E0,0E0,0E0,0E0,0E0,0E0,0E0,0E0,0E0,0E0,0E0,0E0,0E0,0E0,0E0,0E0,0E0,0E0,0E0,0E0,0E0,0E0,0E0,0E0,0E0,0E0,0E0,0E0,0E0,0E0,0E0,0E0,0E0,0E0,0E0,0E0,0E0,0E0,0E0,0E0,0E0,0E0,0E0,0E0,0E0,0E0,0E0,0E0,0E0,0E0,0E0,0E0,0E0],"parents":[2147483647,0,0,1,1,2,2,3,3,4,4,5,5,6,6,7,7,8,8,9,9,10,10,11,11,12,12,13,13,14,14,15,15,16,16,17,17,18,18,19,19,20,20,21,21,22,22,23,23,24,24,25,25,26,26,27,27,28,28,29,29,30,30,31,31,32,32,33,33,36,36,37,37,38,38,39,39,40,40,41,41,42,42,43,43,44,44,45,45,46,46,47,47,48,48,49,49,50,50,51,51,52,52,53,53,54,54,55,55,56,56,57,57,58,58,59,59,60,60,61,61,62,62],"right_children":[2,4,6,8,10,12,14,16,18,20,22,24,26,28,30,32,34,36,38,40,42,44,46,48,50,52,54,56,58,60,62,64,66,68,-1,-1,70,72,74,76,78,80,82,84,86,88,90,92,94,96,98,100,102,104,106,108,110,112,114,116,118,120,122,-1,-1,-1,-1,-1,-1,-1,-1,-1,-1,-1,-1,-1,-1,-1,-1,-1,-1,-1,-1,-1,-1,-1,-1,-1,-1,-1,-1,-1,-1,-1,-1,-1,-1,-1,-1,-1,-1,-1,-1,-1,-1,-1,-1,-1,-1,-1,-1,-1,-1,-1,-1,-1,-1,-1,-1,-1,-1,-1,-1],"split_conditions":[6.78E2,3.73E2,1.186E3,2.75E2,5.17E2,8.98E2,1.821E3,2.39E2,3.24E2,4.43E2,1E0,1E0,1E0,1E0,2.608E3,1E0,2.59E2,2.98E2,1E0,4.06E2,1E0,6.01E2,5.98E2,7.57E2,7.69E2,1.013E3,1.021E3,1.468E3,1.402E3,1E0,3.137E3,1E0,2.07E2,1E0,-1.4175612E2,-1.3430754E2,1E0,3.51E2,3.57E2,1E0,1E0,4.75E2,4.73E2,5.6E2,6.42E2,5.62E2,6.42E2,7.11E2,8.5E2,7.23E2,8.15E2,9.23E2,1.096E3,9.68E2,1.125E3,1E0,1E0,1.284E3,1.607E3,2.073E3,2.073E3,1E0,1E0,-1.6383366E2,-1.6701646E2,-1.965695E2,-1.5639247E2,-1.5142554E2,-1.3514708E2,-1.2315305E2,-1.1176754E2,-1.1340365E2,-1.0283221E2,-9.492439E1,-8.457342E1,-9.146392E1,-7.493682E1,-7.702639E1,-6.0506947E1,-6.692119E1,-5.51309E1,-4.627792E1,-3.1384245E1,-4.2251972E1,-2.9325903E1,-1.6494358E1,-4.813619E0,-1.6436012E1,-3.4363124E0,1.2486308E1,2.5545002E1,3.3878148E0,1.1810026E1,3.1136438E1,5.142124E1,3.995328E1,5.890165E1,7.3280876E1,9.322866E1,5.5469086E1,7.0913605E1,9.7187614E1,1.2318047E2,1.14895E2,1.3450572E2,1.5624057E2,1.8218762E2,1.503176E2,1.8434044E2,2.0600826E2,2.7129883E2,2.061743E2,2.3635823E2,2.851804E2,3.4189572E2,2.883187E2,3.457601E2,4.048369E2,4.7356387E2,4.31686E2,5.3342206E2,5.6373474E2,1.00835834E3],"split_indices":[2,2,2,2,2,2,2,2,2,2,4,4,4,4,2,3,2,2,4,2,4,2,2,2,2,2,2,2,2,4,2,4,2,4,0,0,4,2,2,4,4,2,2,2,2,2,2,2,2,2,2,2,2,2,2,6,6,2,2,2,2,4,5,0,0,0,0,0,0,0,0,0,0,0,0,0,0,0,0,0,0,0,0,0,0,0,0,0,0,0,0,0,0,0,0,0,0,0,0,0,0,0,0,0,0,0,0,0,0,0,0,0,0,0,0,0,0,0,0,0,0,0,0],"split_type":[0,0,0,0,0,0,0,0,0,0,0,0,0,0,0,0,0,0,0,0,0,0,0,0,0,0,0,0,0,0,0,0,0,0,0,0,0,0,0,0,0,0,0,0,0,0,0,0,0,0,0,0,0,0,0,0,0,0,0,0,0,0,0,0,0,0,0,0,0,0,0,0,0,0,0,0,0,0,0,0,0,0,0,0,0,0,0,0,0,0,0,0,0,0,0,0,0,0,0,0,0,0,0,0,0,0,0,0,0,0,0,0,0,0,0,0,0,0,0,0,0,0,0],"sum_hessian":[4.10172E5,2.40628E5,1.69544E5,9.2197E4,1.48431E5,1.3624E5,3.3304E4,7.4917E4,1.728E4,6.0994E4,8.7437E4,8.5695E4,5.0545E4,2.535E4,7.954E3,7.2217E4,2.7E3,6.612E3,1.0668E4,2.5142E4,3.5852E4,5.0493E4,3.6944E4,4.1011E4,4.4684E4,2.0298E4,3.0247E4,9.991E3,1.5359E4,5.267E3,2.687E3,6.9584E4,2.633E3,1.333E3,1.367E3,2.601E3,4.011E3,8.647E3,2.021E3,1.0595E4,1.4547E4,2.4496E4,1.1356E4,2.8399E4,2.2094E4,1.776E4,1.9184E4,1.8266E4,2.2745E4,2.0739E4,2.3945E4,1.115E4,9.148E3,1.6373E4,1.3874E4,6.582E3,3.409E3,9.16E3,6.199E3,2.428E3,2.839E3,1.347E3,1.34E3,6.5101E4,4.483E3,1.344E3,1.289E3,1.242E3,9.1E1,3.474E3,5.37E2,4.337E3,4.31E3,1.147E3,8.74E2,8.108E3,2.487E3,1.0856E4,3.691E3,1.0079E4,1.4417E4,3.909E3,7.447E3,1.4809E4,1.359E4,1.2481E4,9.613E3,9.57E3,8.19E3,1.0728E4,8.456E3,8.334E3,9.932E3,1.6194E4,6.551E3,1.0763E4,9.976E3,9.327E3,1.4618E4,2.877E3,8.273E3,5.236E3,3.912E3,1.0126E4,6.247E3,9.662E3,4.212E3,5.142E3,1.44E3,2.682E3,7.27E2,5.071E3,4.089E3,3.944E3,2.255E3,1.177E3,1.251E3,1.425E3,1.414E3,7.81E2,5.66E2,1.31E3,3E1],"tree_param":{"num_deleted":"0","num_feature":"7","num_nodes":"123","size_leaf_vector":"1"}},{"base_weights":[1.00576915E-1,2.3654863E2,-1.4293295E2,-1.0392282E2,6.61253E2,-4.6348736E1,-1.4307391E2,7.19679E2,-1.396939E3,-1.5445479E2,8.286325E1,1.2650647E3,5.7844116E2,-1.3697291E3,-1.4233182E2,-2.1045404E2,1.0256749E1,8.752324E1,5.355943E1,1.2790004E3,1.2157731E3,7.6976385E2,5.1252594E2,-1.4504027E2,-1.3292544E3,-2.8051817E1,-1.4021131E1,1.8193344E1,-1.6690094E1,7.954872E0,1.2141906E1,7.939878E0,4.1745725E0,1.3795303E2,1.2693304E2,1.2253835E2,9.340792E1,7.817927E1,7.279073E1,4.9174686E1,5.978703E1,-5.9631428E1,-1.3318887E2],"categories":[],"categories_nodes":[],"categories_segments":[],"categories_sizes":[],"default_left":[0,0,0,0,0,0,0,0,0,0,0,0,0,0,0,0,0,0,0,0,0,0,0,0,0,0,0,0,0,0,0,0,0,0,0,0,0,0,0,0,0,0,0],"id":13,"left_children":[1,3,-1,5,7,9,-1,11,13,15,17,19,21,23,-1,25,27,29,31,33,35,37,39,-1,41,-1,-1,-1,-1,-1,-1,-1,-1,-1,-1,-1,-1,-1,-1,-1,-1,-1,-1],"loss_changes":[1.3885106E11,5.0972762E10,0E0,1.4946295E10,1.886276E10,2.6194324E9,0E0,1.1747975E10,1.158144E6,9.417444E8,1.1660288E7,2.0000768E7,1.5274476E9,5.118464E6,0E0,3.74954E8,7.8793146E8,1.9911872E7,3.575232E6,2.2003712E7,1.7631232E7,1.5060992E7,1.5950643E8,0E0,2.003456E6,0E0,0E0,0E0,0E0,0E0,0E0,0E0,0E0,0E0,0E0,0E0,0E0,0E0,0E0,0E0,0E0,0E0,0E0],"parents":[2147483647,0,0,1,1,3,3,4,4,5,5,7,7,8,8,9,9,10,10,11,11,12,12,13,13,15,15,16,16,17,17,18,18,19,19,20,20,21,21,22,22,24,24],"right_children":[2,4,-1,6,8,10,-1,12,14,16,18,20,22,24,-1,26,28,30,32,34,36,38,40,-1,42,-1,-1,-1,-1,-1,-1,-1,-1,-1,-1,-1,-1,-1,-1,-1,-1,-1,-1],"split_conditions":[7E0,1E0,-1.4293295E2,1E0,1E0,5E0,-1.4307391E2,2E0,5E0,1E0,6.14432E5,1E0,3E0,4E0,-1.4233182E2,3E0,3E0,4.9749E5,6E0,6.1382E4,6.89808E5,5.53267E5,1E0,-1.4504027E2,2.808E3,-2.8051817E1,-1.4021131E1,1.8193344E1,-1.6690094E1,7.954872E0,1.2141906E1,7.939878E0,4.1745725E0,1.3795303E2,1.2693304E2,1.2253835E2,9.340792E1,7.817927E1,7.279073E1,4.9174686E1,5.978703E1,-5.9631428E1,-1.3318887E2],"split_indices":[1,4,0,5,5,1,0,1,1,6,0,6,1,1,0,1,1,0,1,0,0,0,6,0,0,0,0,0,0,0,0,0,0,0,0,0,0,0,0,0,0,0,0],"split_type":[0,0,0,0,0,0,0,0,0,0,0,0,0,0,0,0,0,0,0,0,0,0,0,0,0,0,0,0,0,0,0,0,0,0,0,0,0,0,0,0,0,0,0],"sum_hessian":[4.10817E5,3.52508E5,5.8309E4,1.95657E5,1.56851E5,1.87521E5,8.136E3,1.52522E5,4.329E3,1.02099E5,8.5422E4,3.1372E4,1.2115E5,2.157E3,2.172E3,7.6194E4,2.5905E4,7.37E4,1.1722E4,2.4438E4,6.934E3,3.1041E4,9.0109E4,7.09E2,1.448E3,3.8144E4,3.805E4,1.3156E4,1.2749E4,5.9666E4,1.4034E4,3.676E3,8.046E3,2.132E3,2.2306E4,6.702E3,2.32E2,2.4098E4,6.943E3,7.2471E4,1.7638E4,6E0,1.442E3],"tree_param":{"num_deleted":"0","num_feature":"7","num_nodes":"43","size_leaf_vector":"1"}},{"base_weights":[-1.0707657E0,-1.3353362E3,2.7185608E2,-1.3323979E2,-1.3784878E3,-3.5797924E1,6.537134E2,-1.9493466E2,-1.3341537E2,-1.3709464E2,8.3365395E1,1.1493961E3,5.2601746E2,-1.8773668E2,1.1808748E1,7.839814E1,3.7075864E2,1.16373344E2,1.0994091E2,7.0858716E2,4.629357E2,-2.5203398E2,-1.2357622E2,1.6008394E2,-1.4254567E2,7.81E1,2.3813675E2,3.5477704E2,1.0367228E2,7.086398E1,-4.6354836E1,4.413874E2,5.511791E2,-2.52393E1,6.698248E2,-1.4413185E1,-1.0136529E1,2.9534576E1,5.8544645E0,-2.1301865E1,-6.700905E0,9.33435E0,7.106258E0,3.5720646E1,-1.5705904E2,4.411783E1,7.7721643E2,6.1664467E1,3.9745586E1],"categories":[],"categories_nodes":[],"categories_segments":[],"categories_sizes":[],"default_left":[0,0,0,0,0,0,0,0,0,0,0,0,0,0,0,0,0,0,0,0,0,0,0,0,0,0,0,0,0,0,0,0,0,0,0,0,0,0,0,0,0,0,0,0,0,0,0,0,0],"id":14,"left_children":[1,3,5,-1,7,9,11,-1,-1,13,15,17,19,21,23,25,27,-1,-1,29,31,33,35,37,39,41,-1,43,-1,-1,-1,45,47,-1,-1,-1,-1,-1,-1,-1,-1,-1,-1,-1,-1,-1,-1,-1,-1],"loss_changes":[1.4947472E11,6.995968E6,4.0032952E10,0E0,1.0913587E8,2.2780106E9,9.6234E9,0E0,0E0,7.6921395E8,1.2375853E8,2.1041152E7,1.3920768E9,3.139858E8,5.925426E8,5.834179E7,1.5309616E7,0E0,0E0,2.245632E6,1.7062093E8,9.65545E7,1.7381184E7,1.8134531E8,6.751166E7,9.136512E6,0E0,7.296704E6,0E0,0E0,0E0,1.072896E8,1.7719603E8,0E0,0E0,0E0,0E0,0E0,0E0,0E0,0E0,0E0,0E0,0E0,0E0,0E0,0E0,0E0,0E0],"parents":[2147483647,0,0,1,1,2,2,4,4,5,5,6,6,9,9,10,10,11,11,12,12,13,13,14,14,15,15,16,16,19,19,20,20,21,21,22,22,23,23,24,24,25,25,27,27,31,31,32,32],"right_children":[2,4,6,-1,8,10,12,-1,-1,14,16,18,20,22,24,26,28,-1,-1,30,32,34,36,38,40,42,-1,44,-1,-1,-1,46,48,-1,-1,-1,-1,-1,-1,-1,-1,-1,-1,-1,-1,-1,-1,-1,-1],"split_conditions":[1E0,1E0,1E0,-1.3323979E2,1E0,5E0,2E0,-1.9493466E2,-1.3341537E2,1E0,7E0,1E0,3E0,3E0,3E0,2E0,1E0,1.16373344E2,1.0994091E2,1E0,1E0,2E0,4E0,2E0,4E0,6E0,2.3813675E2,1E0,1.0367228E2,7.086398E1,-4.6354836E1,2E0,5E0,-2.52393E1,6.698248E2,-1.4413185E1,-1.0136529E1,2.9534576E1,5.8544645E0,-2.1301865E1,-6.700905E0,9.33435E0,7.106258E0,3.5720646E1,-1.5705904E2,4.411783E1,7.7721643E2,6.1664467E1,3.9745586E1],"split_indices":[3,4,4,0,5,1,1,0,0,6,1,6,1,1,1,5,6,0,0,5,6,5,1,1,1,1,0,5,0,0,0,5,1,0,0,0,0,0,0,0,0,0,0,0,0,0,0,0,0],"split_type":[0,0,0,0,0,0,0,0,0,0,0,0,0,0,0,0,0,0,0,0,0,0,0,0,0,0,0,0,0,0,0,0,0,0,0,0,0,0,0,0,0,0,0,0,0,0,0,0,0],"sum_hessian":[4.10466E5,6.9703E4,3.40763E5,6.5289E4,4.414E3,1.88718E5,1.52045E5,3.15E2,4.099E3,1.02006E5,8.6712E4,3.1144E4,1.20901E5,7.6118E4,2.5888E4,8.524E4,1.472E3,2.4185E4,6.959E3,3.1044E4,8.9857E4,3.8017E4,3.8101E4,1.3204E4,1.2684E4,8.523E4,1E1,1.439E3,3.3E1,3.1043E4,1E0,7.2226E4,1.7631E4,3.8016E4,1E0,1.9785E4,1.8316E4,5.661E3,7.543E3,6.561E3,6.123E3,2.6916E4,5.8314E4,1.438E3,1E0,7.2225E4,1E0,1.2363E4,5.268E3],"tree_param":{"num_deleted":"0","num_feature":"7","num_nodes":"49","size_leaf_vector":"1"}},{"base_weights":[-2.731472E-1,-5.6132007E2,1.1308898E3,-1.093683E3,-1.7102078E2,8.2779315E2,2.894666E3,-1.2075448E3,-7.918149E2,-3.9383563E2,4.0824768E1,5.910731E2,1.3569203E3,2.41702E3,4.213801E3,-1.2197305E3,-1.0661925E3,-8.824576E2,-6.998107E2,-5.2026044E2,-2.8356296E2,-6.02781E1,1.6657597E2,4.2905008E2,7.7398267E2,1.1606711E3,1.6013109E3,2.1444011E3,2.8956504E3,3.8889463E3,5.198531E3,-1.2753092E3,-1.1999387E3,-1.00207886E3,-1.1639978E3,-9.4879785E2,-8.373302E2,-9.35031E2,-6.718131E2,-7.220636E2,-4.9303793E2,-3.251284E2,-8.1048965E1,-9.9896454E1,1.6913068E2,6.531078E1,2.6803397E2,2.8710745E2,5.5431085E2,5.9108E2,9.086099E2,9.3143604E2,1.3038717E3,1.3470309E3,1.749289E3,1.7690398E3,2.4140088E3,2.472202E3,3.2309695E3,4.831916E3,3.6533147E3,4.9672666E3,7.261269E3,-1.22856995E2,-1.4293272E2,-1.1989669E2,-1.6336966E2,-1.1590154E2,-9.755434E1,-1.1701157E2,-8.430638E1,-8.982549E1,-1.0173315E2,-1.0154577E2,-8.174776E1,-8.941122E1,-1.1272298E2,-6.3565834E1,-7.194997E1,-6.607088E1,-9.89861E1,-5.3946796E1,-4.1423153E1,-4.130179E1,-2.2676554E1,-7.207422E0,-1.4093051E2,-2.223687E1,9.137179E-1,1.7897795E1,-1.4146373E2,-4.6321664E0,3.5937904E1,3.3090847E1,1.7819174E1,1.6377266E1,6.1637142E1,6.21629E1,4.5195698E1,4.555896E1,9.5060844E1,1.1948577E2,8.136832E1,9.4829735E1,-1.1818156E2,1.4361497E2,1.177736E2,1.3854686E2,-3.3638268E1,1.8908737E2,1.5896526E2,1.8263774E2,4.336935E1,2.8204456E2,2.2355061E2,2.567326E2,9.168958E1,3.4338315E2,2.792277E2,3.8489554E2,5.414725E2,3.7714194E2,2.3060432E2,4.3669418E2,5.4535626E2,7.387018E2,2.6401617E2],"categories":[],"categories_nodes":[],"categories_segments":[],"categories_sizes":[],"default_left":[0,0,0,0,0,0,0,0,0,0,0,0,0,0,0,0,0,0,0,0,0,0,0,0,0,0,0,0,0,0,0,0,0,0,0,0,0,0,0,0,0,0,0,0,0,0,0,0,0,0,0,0,0,0,0,0,0,0,0,0,0,0,0,0,0,0,0,0,0,0,0,0,0,0,0,0,0,0,0,0,0,0,0,0,0,0,0,0,0,0,0,0,0,0,0,0,0,0,0,0,0,0,0,0,0,0,0,0,0,0,0,0,0,0,0,0,0,0,0,0,0,0,0,0,0,0,0],"id":15,"left_children":[1,3,5,7,9,11,13,15,17,19,21,23,25,27,29,31,33,35,37,39,41,43,45,47,49,51,53,55,57,59,61,63,65,67,69,71,73,75,77,79,81,83,85,87,89,91,93,95,97,99,101,103,105,107,109,111,113,115,117,119,121,123,125,-1,-1,-1,-1,-1,-1,-1,-1,-1,-1,-1,-1,-1,-1,-1,-1,-1,-1,-1,-1,-1,-1,-1,-1,-1,-1,-1,-1,-1,-1,-1,-1,-1,-1,-1,-1,-1,-1,-1,-1,-1,-1,-1,-1,-1,-1,-1,-1,-1,-1,-1,-1,-1,-1,-1,-1,-1,-1,-1,-1,-1,-1,-1,-1],"loss_changes":[2.6016563E11,5.6937808E10,7.265757E10,3.983278E9,7.4632714E9,1.4527021E10,1.2547932E10,1.4367949E8,2.6417152E8,1.074176E9,1.03048954E9,2.374572E9,1.7175593E9,1.9034194E9,1.6742646E9,8.369766E7,4.0771584E7,4.707533E7,1.0317363E8,1.9686298E8,3.4645837E8,4.0837658E8,3.7111616E8,7.554309E8,9.263227E8,6.51606E8,5.983355E8,9.397289E8,7.456973E8,8.682291E8,5.893325E8,1.4459085E8,2.2134784E7,1.572224E7,4.201216E6,2.148352E7,3.285248E7,1.215744E7,2.38336E7,6.942285E7,1.1553229E8,2.951524E8,8.3474856E7,5.116316E8,1.0345032E8,5.935389E8,1.0186765E8,8.090067E8,1.552599E8,7.771187E8,5.881303E8,2.73706E8,2.025001E8,3.8074675E8,2.2500352E8,2.980434E8,3.8734848E8,3.4532147E8,2.537472E8,4.340224E8,4.9953178E8,3.2125338E8,5.6039936E7,0E0,0E0,0E0,0E0,0E0,0E0,0E0,0E0,0E0,0E0,0E0,0E0,0E0,0E0,0E0,0E0,0E0,0E0,0E0,0E0,0E0,0E0,0E0,0E0,0E0,0E0,0E0,0E0,0E0,0E0,0E0,0E0,0E0,0E0,0E0,0E0,0E0,0E0,0E0,0E0,0E0,0E0,0E0,0E0,0E0,0E0,0E0,0E0,0E0,0E0,0E0,0E0,0E0,0E0,0E0,0E0,0E0,0E0,0E0,0E0,0E0,0E0,0E0,0E0],"parents":[2147483647,0,0,1,1,2,2,3,3,4,4,5,5,6,6,7,7,8,8,9,9,10,10,11,11,12,12,13,13,14,14,15,15,16,16,17,17,18,18,19,19,20,20,21,21,22,22,23,23,24,24,25,25,26,26,27,27,28,28,29,29,30,30,31,31,32,32,33,33,34,34,35,35,36,36,37,37,38,38,39,39,40,40,41,41,42,42,43,43,44,44,45,45,46,46,47,47,48,48,49,49,50,50,51,51,52,52,53,53,54,54,55,55,56,56,57,57,58,58,59,59,60,60,61,61,62,62],"right_children":[2,4,6,8,10,12,14,16,18,20,22,24,26,28,30,32,34,36,38,40,42,44,46,48,50,52,54,56,58,60,62,64,66,68,70,72,74,76,78,80,82,84,86,88,90,92,94,96,98,100,102,104,106,108,110,112,114,116,118,120,122,124,126,-1,-1,-1,-1,-1,-1,-1,-1,-1,-1,-1,-1,-1,-1,-1,-1,-1,-1,-1,-1,-1,-1,-1,-1,-1,-1,-1,-1,-1,-1,-1,-1,-1,-1,-1,-1,-1,-1,-1,-1,-1,-1,-1,-1,-1,-1,-1,-1,-1,-1,-1,-1,-1,-1,-1,-1,-1,-1,-1,-1,-1,-1,-1,-1],"split_conditions":[7.5E2,4.4E2,1.374E3,3.38E2,5.88E2,1.021E3,2.073E3,2.98E2,3.99E2,5.14E2,6.73E2,8.66E2,1.161E3,1.664E3,3.137E3,7E0,6E0,3.67E2,2E0,2E0,6E0,6E0,1E0,1E0,1E0,1E0,1E0,1E0,1E0,2E0,7E0,6E0,2.07E2,2E0,1E0,5E0,2E0,1E0,5E0,1E0,4.89E2,1E0,7E0,1E0,7E0,6E0,4E0,6E0,4E0,6E0,2E0,7E0,3E0,7E0,3E0,7E0,2E0,7E0,4E0,1E0,7E0,1E0,1E0,-1.22856995E2,-1.4293272E2,-1.1989669E2,-1.6336966E2,-1.1590154E2,-9.755434E1,-1.1701157E2,-8.430638E1,-8.982549E1,-1.0173315E2,-1.0154577E2,-8.174776E1,-8.941122E1,-1.1272298E2,-6.3565834E1,-7.194997E1,-6.607088E1,-9.89861E1,-5.3946796E1,-4.1423153E1,-4.130179E1,-2.2676554E1,-7.207422E0,-1.4093051E2,-2.223687E1,9.137179E-1,1.7897795E1,-1.4146373E2,-4.6321664E0,3.5937904E1,3.3090847E1,1.7819174E1,1.6377266E1,6.1637142E1,6.21629E1,4.5195698E1,4.555896E1,9.5060844E1,1.1948577E2,8.136832E1,9.4829735E1,-1.1818156E2,1.4361497E2,1.177736E2,1.3854686E2,-3.3638268E1,1.8908737E2,1.5896526E2,1.8263774E2,4.336935E1,2.8204456E2,2.2355061E2,2.567326E2,9.168958E1,3.4338315E2,2.792277E2,3.8489554E2,5.414725E2,3.7714194E2,2.3060432E2,4.3669418E2,5.4535626E2,7.387018E2,2.6401617E2],"split_indices":[2,2,2,2,2,2,2,2,2,2,2,2,2,2,2,1,1,2,1,1,1,1,4,4,4,4,4,4,4,1,1,1,2,1,6,1,1,6,1,6,2,4,1,4,1,1,1,1,1,1,1,1,1,1,1,1,1,1,1,4,1,4,6,0,0,0,0,0,0,0,0,0,0,0,0,0,0,0,0,0,0,0,0,0,0,0,0,0,0,0,0,0,0,0,0,0,0,0,0,0,0,0,0,0,0,0,0,0,0,0,0,0,0,0,0,0,0,0,0,0,0,0,0,0,0,0,0],"split_type":[0,0,0,0,0,0,0,0,0,0,0,0,0,0,0,0,0,0,0,0,0,0,0,0,0,0,0,0,0,0,0,0,0,0,0,0,0,0,0,0,0,0,0,0,0,0,0,0,0,0,0,0,0,0,0,0,0,0,0,0,0,0,0,0,0,0,0,0,0,0,0,0,0,0,0,0,0,0,0,0,0,0,0,0,0,0,0,0,0,0,0,0,0,0,0,0,0,0,0,0,0,0,0,0,0,0,0,0,0,0,0,0,0,0,0,0,0,0,0,0,0,0,0,0,0,0,0],"sum_hessian":[4.09943E5,2.74028E5,1.35915E5,1.15917E5,1.58111E5,1.15985E5,1.993E4,8.4167E4,3.175E4,7.706E4,8.1051E4,8.0136E4,3.5849E4,1.4634E4,5.296E3,7.748E4,6.687E3,1.5989E4,1.5761E4,3.5899E4,4.1161E4,4.4929E4,3.6122E4,4.2496E4,3.764E4,1.9886E4,1.5963E4,9.327E3,5.307E3,3.986E3,1.31E3,2.0329E4,5.7151E4,4.046E3,2.641E3,6.465E3,9.524E3,1.673E3,1.4088E4,4.264E3,3.1635E4,3.4151E4,7.01E3,3.8313E4,6.616E3,1.8079E4,1.8043E4,1.9923E4,2.2573E4,1.5961E4,2.1679E4,7.649E3,1.2237E4,5.876E3,1.0087E4,3.902E3,5.425E3,2.349E3,2.958E3,7.93E2,3.193E3,1.181E3,1.29E2,1.5603E4,4.726E3,5.7027E4,1.24E2,5.79E2,3.467E3,2.589E3,5.2E1,3.729E3,2.736E3,9.5E2,8.574E3,1.384E3,2.89E2,8.021E3,6.067E3,3.472E3,7.92E2,1.9903E4,1.1732E4,1.8034E4,1.6117E4,6.964E3,4.6E1,1.8044E4,2.0269E4,6.576E3,4E1,1.3105E4,4.974E3,1.0613E4,7.43E3,1.4495E4,5.428E3,1.3614E4,8.959E3,1.1594E4,4.367E3,5.396E3,1.6283E4,7.589E3,6E1,5.968E3,6.269E3,5.745E3,1.31E2,5.34E3,4.747E3,3.741E3,1.61E2,1.651E3,3.774E3,2.213E3,1.36E2,2.018E3,9.4E2,2.98E2,4.95E2,2.934E3,2.59E2,5.33E2,6.48E2,1.25E2,4E0],"tree_param":{"num_deleted":"0","num_feature":"7","num_nodes":"127","size_leaf_vector":"1"}},{"base_weights":[-3.3221442E-1,-4.9822003E2,1.0375482E3,-9.798901E2,-1.4395314E2,7.4907697E2,2.55089E3,-1.0873318E3,-7.0677466E2,-3.3562244E2,6.2566303E1,5.3555646E2,1.1996664E3,2.0497046E3,3.647189E3,-1.0965446E3,-9.500752E2,-7.96187E2,-6.237483E2,-4.5002173E2,-2.355821E2,-2.8060081E1,1.6345535E2,4.10448E2,6.95956E2,1.0164055E3,1.3961272E3,1.6726735E3,2.3223657E3,3.1952654E3,4.3259946E3,-1.0813667E3,-1.2109563E3,-9.779112E1,-9.221022E1,-8.56052E2,-7.555881E2,-6.080587E2,-6.931754E2,-5.099301E2,-3.939047E2,-2.809083E2,-1.8206476E2,-7.871537E1,3.2292713E1,7.168939E1,2.5536879E2,2.8780615E2,5.168562E2,5.2716833E2,8.198906E2,8.2435767E2,1.137892E3,1.1729144E3,1.5256205E3,1.4844249E3,1.984635E3,2.0944612E3,2.7409905E3,2.711385E3,3.6160417E3,3.9502375E3,4.700195E3,-1.0788058E2,-1.11856834E2,-1.6344667E2,-1.1401027E2,-8.434788E1,-9.1789085E1,-7.4195755E1,-8.20392E1,-6.7123825E1,-5.8984993E1,-7.309562E1,-6.496676E1,-5.3627422E1,-4.753708E1,-4.2191036E1,-3.399963E1,-2.6135181E1,-3.6505898E1,-2.227998E1,-1.23667755E1,-1.1845086E1,-2.0321527E0,-3.3422315E0,8.281595E0,7.26857E0,-1.7491492E2,2.0823896E1,3.2277187E1,2.3168386E1,3.471493E1,4.315973E1,5.8544624E1,4.4924408E1,6.1582966E1,7.5435814E1,9.1470825E1,7.734654E1,1.0200667E2,1.0352661E2,1.2384615E2,9.887401E1,1.22784096E2,1.4491658E2,1.7051146E2,1.3950343E2,1.7978085E2,1.8917938E2,2.3635558E2,2.0995064E2,-1.2140444E2,2.633015E2,3.0796368E2,2.5992508E2,3.1251492E2,3.4543307E2,3.962103E2,3.5448553E2,4.4862036E2,4.641753E2,7.001257E2],"categories":[],"categories_nodes":[],"categories_segments":[],"categories_sizes":[],"default_left":[0,0,0,0,0,0,0,0,0,0,0,0,0,0,0,0,0,0,0,0,0,0,0,0,0,0,0,0,0,0,0,0,0,0,0,0,0,0,0,0,0,0,0,0,0,0,0,0,0,0,0,0,0,0,0,0,0,0,0,0,0,0,0,0,0,0,0,0,0,0,0,0,0,0,0,0,0,0,0,0,0,0,0,0,0,0,0,0,0,0,0,0,0,0,0,0,0,0,0,0,0,0,0,0,0,0,0,0,0,0,0,0,0,0,0,0,0,0,0,0,0,0,0],"id":16,"left_children":[1,3,5,7,9,11,13,15,17,19,21,23,25,27,29,31,33,35,37,39,41,43,45,47,49,51,53,55,57,59,61,63,65,-1,-1,67,69,71,73,75,77,79,81,83,85,87,89,91,93,95,97,99,101,103,105,107,109,111,113,115,117,119,121,-1,-1,-1,-1,-1,-1,-1,-1,-1,-1,-1,-1,-1,-1,-1,-1,-1,-1,-1,-1,-1,-1,-1,-1,-1,-1,-1,-1,-1,-1,-1,-1,-1,-1,-1,-1,-1,-1,-1,-1,-1,-1,-1,-1,-1,-1,-1,-1,-1,-1,-1,-1,-1,-1,-1,-1,-1,-1,-1,-1],"loss_changes":[2.120248E11,4.731605E10,5.806827E10,3.4475295E9,6.324464E9,1.074833E10,1.1693588E10,1.0560307E8,2.4581837E8,9.4826906E8,7.031997E8,1.5209185E9,1.2918292E9,1.4987715E9,2.0353925E9,1.3591347E8,3.234304E6,3.8170624E7,1.8323968E7,1.2976282E8,1.0719053E8,1.2386758E8,3.0694784E8,5.556552E8,6.94401E8,4.3274035E8,4.992164E8,3.575173E8,8.033034E8,8.0746906E8,3.56438E8,5.44768E6,2.756137E8,0E0,0E0,4.238336E6,7.805952E6,1.5761408E7,4.727808E6,1.6764928E7,2.9998336E7,3.9294336E7,4.8205056E7,5.110931E7,6.1388756E7,3.3167456E7,5.769139E7,6.5822976E7,1.3309747E8,9.690368E7,1.1830784E8,7.098368E7,1.1620352E8,6.3205376E7,1.4801715E8,1.0483968E8,7.668838E7,9.426944E7,1.0107699E8,7.868518E7,1.062953E8,2.745897E8,1.4649344E8,0E0,0E0,0E0,0E0,0E0,0E0,0E0,0E0,0E0,0E0,0E0,0E0,0E0,0E0,0E0,0E0,0E0,0E0,0E0,0E0,0E0,0E0,0E0,0E0,0E0,0E0,0E0,0E0,0E0,0E0,0E0,0E0,0E0,0E0,0E0,0E0,0E0,0E0,0E0,0E0,0E0,0E0,0E0,0E0,0E0,0E0,0E0,0E0,0E0,0E0,0E0,0E0,0E0,0E0,0E0,0E0,0E0,0E0,0E0,0E0],"parents":[2147483647,0,0,1,1,2,2,3,3,4,4,5,5,6,6,7,7,8,8,9,9,10,10,11,11,12,12,13,13,14,14,15,15,16,16,17,17,18,18,19,19,20,20,21,21,22,22,23,23,24,24,25,25,26,26,27,27,28,28,29,29,30,30,31,31,32,32,35,35,36,36,37,37,38,38,39,39,40,40,41,41,42,42,43,43,44,44,45,45,46,46,47,47,48,48,49,49,50,50,51,51,52,52,53,53,54,54,55,55,56,56,57,57,58,58,59,59,60,60,61,61,62,62],"right_children":[2,4,6,8,10,12,14,16,18,20,22,24,26,28,30,32,34,36,38,40,42,44,46,48,50,52,54,56,58,60,62,64,66,-1,-1,68,70,72,74,76,78,80,82,84,86,88,90,92,94,96,98,100,102,104,106,108,110,112,114,116,118,120,122,-1,-1,-1,-1,-1,-1,-1,-1,-1,-1,-1,-1,-1,-1,-1,-1,-1,-1,-1,-1,-1,-1,-1,-1,-1,-1,-1,-1,-1,-1,-1,-1,-1,-1,-1,-1,-1,-1,-1,-1,-1,-1,-1,-1,-1,-1,-1,-1,-1,-1,-1,-1,-1,-1,-1,-1,-1,-1,-1,-1],"split_conditions":[7.57E2,4.43E2,1.348E3,3.38E2,6.01E2,1.013E3,1.925E3,3.07E2,3.99E2,5.22E2,6.78E2,8.76E2,1.136E3,1E0,2.608E3,1E0,3.24E2,3.67E2,1E0,4.84E2,5.65E2,1E0,1E0,1E0,1E0,1E0,1E0,1.607E3,1.607E3,1E0,3.137E3,1E0,2.07E2,-9.779112E1,-9.221022E1,1E0,1E0,4.1E2,4.24E2,4.67E2,1E0,1E0,1E0,6.45E2,6.35E2,1E0,7.23E2,8.12E2,8.07E2,9.39E2,9.5E2,1E0,1.068E3,1.172E3,1.265E3,1E0,1E0,1E0,1.821E3,1E0,2.283E3,1E0,1E0,-1.0788058E2,-1.11856834E2,-1.6344667E2,-1.1401027E2,-8.434788E1,-9.1789085E1,-7.4195755E1,-8.20392E1,-6.7123825E1,-5.8984993E1,-7.309562E1,-6.496676E1,-5.3627422E1,-4.753708E1,-4.2191036E1,-3.399963E1,-2.6135181E1,-3.6505898E1,-2.227998E1,-1.23667755E1,-1.1845086E1,-2.0321527E0,-3.3422315E0,8.281595E0,7.26857E0,-1.7491492E2,2.0823896E1,3.2277187E1,2.3168386E1,3.471493E1,4.315973E1,5.8544624E1,4.4924408E1,6.1582966E1,7.5435814E1,9.1470825E1,7.734654E1,1.0200667E2,1.0352661E2,1.2384615E2,9.887401E1,1.22784096E2,1.4491658E2,1.7051146E2,1.3950343E2,1.7978085E2,1.8917938E2,2.3635558E2,2.0995064E2,-1.2140444E2,2.633015E2,3.0796368E2,2.5992508E2,3.1251492E2,3.4543307E2,3.962103E2,3.5448553E2,4.4862036E2,4.641753E2,7.001257E2],"split_indices":[2,2,2,2,2,2,2,2,2,2,2,2,2,4,2,3,2,2,6,2,2,4,4,4,4,4,4,2,2,4,2,4,2,0,0,6,6,2,2,2,4,6,4,2,2,5,2,2,2,2,2,6,2,2,2,6,6,5,2,6,2,4,5,0,0,0,0,0,0,0,0,0,0,0,0,0,0,0,0,0,0,0,0,0,0,0,0,0,0,0,0,0,0,0,0,0,0,0,0,0,0,0,0,0,0,0,0,0,0,0,0,0,0,0,0,0,0,0,0,0,0,0,0],"split_type":[0,0,0,0,0,0,0,0,0,0,0,0,0,0,0,0,0,0,0,0,0,0,0,0,0,0,0,0,0,0,0,0,0,0,0,0,0,0,0,0,0,0,0,0,0,0,0,0,0,0,0,0,0,0,0,0,0,0,0,0,0,0,0,0,0,0,0,0,0,0,0,0,0,0,0,0,0,0,0,0,0,0,0,0,0,0,0,0,0,0,0,0,0,0,0,0,0,0,0,0,0,0,0,0,0,0,0,0,0,0,0,0,0,0,0,0,0,0,0,0,0,0,0],"sum_hessian":[4.10304E5,2.77286E5,1.33018E5,1.17512E5,1.59774E5,1.11723E5,2.1295E4,8.4333E4,3.3179E4,8.2866E4,7.6908E4,7.5804E4,3.5919E4,1.4616E4,6.679E3,7.9022E4,5.311E3,1.5971E4,1.7208E4,3.8657E4,4.4209E4,4.0515E4,3.6393E4,4.2589E4,3.3215E4,1.8587E4,1.7332E4,6.137E3,8.479E3,4.013E3,2.666E3,6.9776E4,9.246E3,2.645E3,2.666E3,6.446E3,9.525E3,1.4044E4,3.164E3,1.8693E4,1.9964E4,2.3934E4,2.0275E4,2.2027E4,1.8488E4,1.8212E4,1.8181E4,1.9787E4,2.2802E4,1.4065E4,1.915E4,7.205E3,1.1382E4,6.367E3,1.0965E4,3.831E3,2.306E3,5.494E3,2.985E3,1.87E3,2.143E3,1.336E3,1.33E3,6.531E4,4.466E3,1.322E3,7.924E3,5.369E3,1.077E3,7.88E3,1.645E3,3.134E3,1.091E4,1.685E3,1.479E3,1.0599E4,8.094E3,1.3134E4,6.83E3,1.9424E4,4.51E3,1.1942E4,8.333E3,1.3107E4,8.92E3,8.036E3,1.0452E4,1.8203E4,9E0,1.0702E4,7.479E3,1.0172E4,9.615E3,1.0169E4,1.2633E4,7.489E3,6.576E3,1.1329E4,7.821E3,5.722E3,1.483E3,5.639E3,5.743E3,1.467E3,4.9E3,7.696E3,3.269E3,2.985E3,8.46E2,1.857E3,4.49E2,5.486E3,8E0,2.27E3,7.15E2,1.477E3,3.93E2,1.468E3,6.75E2,7.65E2,5.71E2,1.3E3,3E1],"tree_param":{"num_deleted":"0","num_feature":"7","num_nodes":"123","size_leaf_vector":"1"}},{"base_weights":[1.4293261E-1,-4.4773126E2,9.331922E2,-8.7407294E2,-1.2207491E2,6.9730597E2,2.3820618E3,-9.788791E2,-6.276069E2,-2.865964E2,6.641792E1,5.0806607E2,1.1587899E3,1.9734608E3,3.407278E3,-9.886452E2,-8.651853E2,-7.099871E2,-5.496254E2,-3.8837988E2,-1.9840627E2,-2.1682783E1,1.4396947E2,3.7311887E2,6.6755396E2,1.0111456E3,1.3467739E3,2.4501294E3,1.821009E3,3.1396687E3,4.2101606E3,-1.0352521E3,-9.718988E2,-8.0761646E2,-9.319774E2,-6.641544E2,-7.7741943E2,-7.616272E2,-5.23051E2,-5.589409E2,-3.6505356E2,-2.3379637E2,-1.895536E1,-6.0521065E1,2.0648573E2,1.1451437E2,3.2897702E2,3.0237628E2,4.40001E2,6.0156903E2,7.693297E2,1.0177294E3,-9.438659E2,1.6507274E3,1.2369536E3,2.105086E3,2.814344E3,1.6137814E3,2.1280845E3,4.000602E3,2.9248008E3,4.0433289E3,5.926011E3,-1.1376501E2,-9.6484406E1,-9.710122E1,-1.361207E2,-9.602788E1,-7.781948E1,-9.790191E1,-8.959368E1,-8.681356E1,-6.242933E1,-7.7085464E1,-1.4286331E2,-7.023013E1,-1.01079E2,-5.212306E1,-1.3805162E2,-5.0103165E1,-8.024792E1,-4.1533672E1,-3.1892683E1,-3.7550182E1,-2.0778494E1,-1.0000428E0,-1.2596163E2,-1.0554603E1,-2.7376478E0,2.1387274E1,-1.2664674E2,5.9697914E0,1.6002357E1,3.40697E1,-1.4578412E2,3.0444391E1,-1.4040872E2,4.136643E1,6.2453854E1,5.7535744E1,7.988162E1,9.591603E1,7.152347E1,1.1721704E2,9.684414E1,-1.5495839E2,-6.04112E1,1.4799678E2,1.7428598E2,1.25645226E2,-5.13899E1,2.1143192E2,-7.895222E1,4.660481E2,2.7910443E2,1.6467989E2,1.7196814E1,2.1783618E2,6.27198E1,3.5071298E2,4.2802292E2,3.0295602E2,1.6761351E2,3.9459888E2,7.611823E2,4.545254E2,6.7176746E2],"categories":[],"categories_nodes":[],"categories_segments":[],"categories_sizes":[],"default_left":[0,0,0,0,0,0,0,0,0,0,0,0,0,0,0,0,0,0,0,0,0,0,0,0,0,0,0,0,0,0,0,0,0,0,0,0,0,0,0,0,0,0,0,0,0,0,0,0,0,0,0,0,0,0,0,0,0,0,0,0,0,0,0,0,0,0,0,0,0,0,0,0,0,0,0,0,0,0,0,0,0,0,0,0,0,0,0,0,0,0,0,0,0,0,0,0,0,0,0,0,0,0,0,0,0,0,0,0,0,0,0,0,0,0,0,0,0,0,0,0,0,0,0,0,0,0,0],"id":17,"left_children":[1,3,5,7,9,11,13,15,17,19,21,23,25,27,29,31,33,35,37,39,41,43,45,47,49,51,53,55,57,59,61,63,65,67,69,71,73,75,77,79,81,83,85,87,89,91,93,95,97,99,101,103,105,107,109,111,113,115,117,119,121,123,125,-1,-1,-1,-1,-1,-1,-1,-1,-1,-1,-1,-1,-1,-1,-1,-1,-1,-1,-1,-1,-1,-1,-1,-1,-1,-1,-1,-1,-1,-1,-1,-1,-1,-1,-1,-1,-1,-1,-1,-1,-1,-1,-1,-1,-1,-1,-1,-1,-1,-1,-1,-1,-1,-1,-1,-1,-1,-1,-1,-1,-1,-1,-1,-1],"loss_changes":[1.7119896E11,3.8431875E10,4.5409116E10,3.0958305E9,4.8667494E9,9.978569E9,7.786152E9,9.252864E7,2.2938829E8,7.5210086E8,4.9972093E8,1.7439068E9,9.2092826E8,9.623306E8,1.1255316E9,5.943296E7,2.486016E7,5.3228544E7,1.0314547E8,1.5455795E8,2.8513306E8,3.034539E8,2.1193914E8,2.0757146E8,2.489641E8,2.4057242E8,4.8581222E8,3.9885824E8,6.3825715E8,7.243653E8,3.54474E8,1.463808E8,1.835008E7,1.535488E7,4.339456E6,8.369459E7,2.8956928E7,2.9518848E7,2.4779264E7,6.557235E7,7.924224E7,1.3815296E8,8.2168344E7,4.366576E7,5.4467616E7,8.370602E7,1.1236602E8,7.571226E7,1.0940058E8,1.1606016E8,1.4929203E8,1.4009958E8,1.202896E7,5.8399744E7,3.673006E8,4.5981184E7,5.426688E7,2.865367E8,3.050025E8,9.427558E7,4.1194086E8,3.895685E8,9.517235E7,0E0,0E0,0E0,0E0,0E0,0E0,0E0,0E0,0E0,0E0,0E0,0E0,0E0,0E0,0E0,0E0,0E0,0E0,0E0,0E0,0E0,0E0,0E0,0E0,0E0,0E0,0E0,0E0,0E0,0E0,0E0,0E0,0E0,0E0,0E0,0E0,0E0,0E0,0E0,0E0,0E0,0E0,0E0,0E0,0E0,0E0,0E0,0E0,0E0,0E0,0E0,0E0,0E0,0E0,0E0,0E0,0E0,0E0,0E0,0E0,0E0,0E0,0E0,0E0],"parents":[2147483647,0,0,1,1,2,2,3,3,4,4,5,5,6,6,7,7,8,8,9,9,10,10,11,11,12,12,13,13,14,14,15,15,16,16,17,17,18,18,19,19,20,20,21,21,22,22,23,23,24,24,25,25,26,26,27,27,28,28,29,29,30,30,31,31,32,32,33,33,34,34,35,35,36,36,37,37,38,38,39,39,40,40,41,41,42,42,43,43,44,44,45,45,46,46,47,47,48,48,49,49,50,50,51,51,52,52,53,53,54,54,55,55,56,56,57,57,58,58,59,59,60,60,61,61,62,62],"right_children":[2,4,6,8,10,12,14,16,18,20,22,24,26,28,30,32,34,36,38,40,42,44,46,48,50,52,54,56,58,60,62,64,66,68,70,72,74,76,78,80,82,84,86,88,90,92,94,96,98,100,102,104,106,108,110,112,114,116,118,120,122,124,126,-1,-1,-1,-1,-1,-1,-1,-1,-1,-1,-1,-1,-1,-1,-1,-1,-1,-1,-1,-1,-1,-1,-1,-1,-1,-1,-1,-1,-1,-1,-1,-1,-1,-1,-1,-1,-1,-1,-1,-1,-1,-1,-1,-1,-1,-1,-1,-1,-1,-1,-1,-1,-1,-1,-1,-1,-1,-1,-1,-1,-1,-1,-1,-1],"split_conditions":[7.57E2,4.49E2,1.402E3,3.38E2,6.08E2,1.043E3,2.073E3,2.98E2,4.03E2,5.27E2,6.73E2,8.8E2,1.186E3,2E0,3.137E3,7E0,5E0,5E0,2E0,2E0,6E0,6E0,6E0,8.12E2,9.68E2,7E0,2E0,1.607E3,1.664E3,2E0,7E0,1E0,2.07E2,2E0,3.16E2,2E0,7E0,1E0,7E0,1E0,4.89E2,2E0,7E0,6.35E2,7E0,7.09E2,7E0,7E0,6E0,6E0,2E0,2E0,1.086E3,1.247E3,7E0,1E0,5.629E3,7E0,7E0,2.283E3,7E0,1E0,2.94646E5,-1.1376501E2,-9.6484406E1,-9.710122E1,-1.361207E2,-9.602788E1,-7.781948E1,-9.790191E1,-8.959368E1,-8.681356E1,-6.242933E1,-7.7085464E1,-1.4286331E2,-7.023013E1,-1.01079E2,-5.212306E1,-1.3805162E2,-5.0103165E1,-8.024792E1,-4.1533672E1,-3.1892683E1,-3.7550182E1,-2.0778494E1,-1.0000428E0,-1.2596163E2,-1.0554603E1,-2.7376478E0,2.1387274E1,-1.2664674E2,5.9697914E0,1.6002357E1,3.40697E1,-1.4578412E2,3.0444391E1,-1.4040872E2,4.136643E1,6.2453854E1,5.7535744E1,7.988162E1,9.591603E1,7.152347E1,1.1721704E2,9.684414E1,-1.5495839E2,-6.04112E1,1.4799678E2,1.7428598E2,1.25645226E2,-5.13899E1,2.1143192E2,-7.895222E1,4.660481E2,2.7910443E2,1.6467989E2,1.7196814E1,2.1783618E2,6.27198E1,3.5071298E2,4.2802292E2,3.0295602E2,1.6761351E2,3.9459888E2,7.611823E2,4.545254E2,6.7176746E2],"split_indices":[2,2,2,2,2,2,2,2,2,2,2,2,2,1,2,1,1,1,1,1,1,1,1,2,2,1,1,2,2,1,1,5,2,1,2,1,1,6,1,6,2,1,1,2,1,2,1,1,1,1,1,1,2,2,1,5,0,1,1,2,1,5,0,0,0,0,0,0,0,0,0,0,0,0,0,0,0,0,0,0,0,0,0,0,0,0,0,0,0,0,0,0,0,0,0,0,0,0,0,0,0,0,0,0,0,0,0,0,0,0,0,0,0,0,0,0,0,0,0,0,0,0,0,0,0,0,0],"split_type":[0,0,0,0,0,0,0,0,0,0,0,0,0,0,0,0,0,0,0,0,0,0,0,0,0,0,0,0,0,0,0,0,0,0,0,0,0,0,0,0,0,0,0,0,0,0,0,0,0,0,0,0,0,0,0,0,0,0,0,0,0,0,0,0,0,0,0,0,0,0,0,0,0,0,0,0,0,0,0,0,0,0,0,0,0,0,0,0,0,0,0,0,0,0,0,0,0,0,0,0,0,0,0,0,0,0,0,0,0,0,0,0,0,0,0,0,0,0,0,0,0,0,0,0,0,0,0],"sum_hessian":[4.09674E5,2.76805E5,1.32869E5,1.19871E5,1.56934E5,1.14267E5,1.8602E4,8.4104E4,3.5767E4,8.3795E4,7.3139E4,8.1038E4,3.3229E4,1.3303E4,5.299E3,7.7444E4,6.66E3,1.7389E4,1.8378E4,3.8898E4,4.4897E4,3.4241E4,3.8898E4,4.3898E4,3.714E4,1.8615E4,1.4614E4,3.22E3,1.0083E4,3.978E3,1.321E3,2.0455E4,5.6989E4,3.584E3,3.076E3,1.0359E4,7.03E3,2.044E3,1.6334E4,4.677E3,3.4221E4,3.7501E4,7.396E3,2.9261E4,4.98E3,3.3557E4,5.341E3,2.1336E4,2.2562E4,2.2536E4,1.4604E4,1.8553E4,6.2E1,3.875E3,1.0739E4,1.657E3,1.563E3,6.024E3,4.059E3,7.91E2,3.187E3,1.207E3,1.14E2,8.328E3,1.2127E4,5.6863E4,1.26E2,5.74E2,3.01E3,1.323E3,1.753E3,1.69E3,8.669E3,6.962E3,6.8E1,1.654E3,3.9E2,1.6301E4,3.3E1,3.781E3,8.96E2,1.6369E4,1.7852E4,5.814E3,3.1687E4,7.344E3,5.2E1,1.2406E4,1.6855E4,4.956E3,2.4E1,1.5223E4,1.8334E4,5.307E3,3.4E1,2.1311E4,2.5E1,1.9747E4,2.815E3,1.9896E4,2.64E3,3.235E3,1.1369E4,4.483E3,1.407E4,2.1E1,4.1E1,1.364E3,2.511E3,1.0621E4,1.18E2,1.652E3,5E0,1.7E1,1.546E3,5.889E3,1.35E2,3.927E3,1.32E2,2.91E2,5E2,2.939E3,2.48E2,1.177E3,3E1,4.4E1,7E1],"tree_param":{"num_deleted":"0","num_feature":"7","num_nodes":"127","size_leaf_vector":"1"}},{"base_weights":[-2.3758411E-1,-8.761448E2,1.7906766E2,-8.738317E1,-9.099343E2,-3.276881E1,4.4096182E2,-1.4066667E2,-8.695974E1,-4.1857918E1,7.6961718E0,4.3014548E2,4.8269324E2,-4.2049667E1,7.337504E2,8.735098E0,-4.828111E2,4.2994418E2,8.400966E2,4.8352087E2,-8.3738275E2,-1.1317815E2,-4.151468E1,-3.0176498E1,1.7136345E1,2.8992935E1,-8.6126154E2,4.3499753E2,4.164102E2,4.888172E2,3.770239E2,-5.500702E2,-1.8491154E2,-4.4647827E0,-1.8175014E1,6.1916866E0,-4.1915917E0,1.9916866E1,-4.149701E0,8.166833E-1,4.1178236E0,-4.955194E1,1.4244711E2,-1.4296043E2,-6.854867E1,4.2947784E1,4.5074516E1,4.0631737E1,4.532162E1,4.1298397E1,4.914551E1,4.0111942E1,1.4215314E1,-1.27448685E2,2.354654E1],"categories":[],"categories_nodes":[],"categories_segments":[],"categories_sizes":[],"default_left":[0,0,0,0,0,0,0,0,0,0,0,0,0,0,0,0,0,0,0,0,0,0,0,0,0,0,0,0,0,0,0,0,0,0,0,0,0,0,0,0,0,0,0,0,0,0,0,0,0,0,0,0,0,0,0],"id":18,"left_children":[1,3,5,-1,7,9,11,-1,-1,13,15,17,19,21,-1,23,25,27,-1,29,31,33,35,37,39,41,43,45,47,49,51,53,-1,-1,-1,-1,-1,-1,-1,-1,-1,-1,-1,-1,-1,-1,-1,-1,-1,-1,-1,-1,-1,-1,-1],"loss_changes":[6.442888E10,4.657152E6,1.8891854E10,0E0,8.777958E7,6.923837E7,6.852608E7,0E0,0E0,2.178238E8,1.7600742E7,1.90421E8,3.4640384E7,5.844896E6,0E0,1.1265041E7,1.4164518E7,8.087552E6,0E0,1.747968E7,4.796526E6,5.381938E6,6.334592E6,1.5895054E7,6.111015E6,2.4128112E7,3.215842E6,7.45984E6,1.2038144E7,5.763584E6,8.364064E6,9.974034E6,0E0,0E0,0E0,0E0,0E0,0E0,0E0,0E0,0E0,0E0,0E0,0E0,0E0,0E0,0E0,0E0,0E0,0E0,0E0,0E0,0E0,0E0,0E0],"parents":[2147483647,0,0,1,1,2,2,4,4,5,5,6,6,9,9,10,10,11,11,12,12,13,13,15,15,16,16,17,17,19,19,20,20,21,21,22,22,23,23,24,24,25,25,26,26,27,27,28,28,29,29,30,30,31,31],"right_children":[2,4,6,-1,8,10,12,-1,-1,14,16,18,20,22,-1,24,26,28,-1,30,32,34,36,38,40,42,44,46,48,50,52,54,-1,-1,-1,-1,-1,-1,-1,-1,-1,-1,-1,-1,-1,-1,-1,-1,-1,-1,-1,-1,-1,-1,-1],"split_conditions":[1E0,1E0,1E0,-8.738317E1,1E0,1E0,1E0,-1.4066667E2,-8.695974E1,2E0,2E0,2E0,2E0,5.629E3,7.337504E2,1.25086E5,2.80639E5,5.17093E5,8.400966E2,6.78812E5,5.50481E5,2.808E3,8.366E3,5.629E3,5.53267E5,2.27949E5,3.30442E5,3.83367E5,6.70485E5,2.2337E4,7.09256E5,2.69434E5,-1.8491154E2,-4.4647827E0,